{"learner":{"attributes":{"best_iteration":"279","best_score":"3.333710887218304"},"feature_names":["measurement_id","U","I","Z","P","Phase","E","lagged_E_1ms","lagged_E_3ms","lagged_E_8ms","lagged_E_15ms","mean_E_1ms","mean_E_3ms","mean_E_8ms","mean_E_15ms","slope_E_1ms","slope_E_3ms","slope_E_8ms","slope_E_15ms","lagged_U_1ms","lagged_U_3ms","lagged_U_8ms","lagged_U_15ms","mean_U_1ms","mean_U_3ms","mean_U_8ms","mean_U_15ms","slope_U_1ms","slope_U_3ms","slope_U_8ms","slope_U_15ms","initial_U","lagged_I_1ms","lagged_I_3ms","lagged_I_8ms","lagged_I_15ms","mean_I_1ms","mean_I_3ms","mean_I_8ms","mean_I_15ms","slope_I_1ms","slope_I_3ms","slope_I_8ms","slope_I_15ms","initial_I","lagged_Z_1ms","lagged_Z_3ms","lagged_Z_8ms","lagged_Z_15ms","mean_Z_1ms","mean_Z_3ms","mean_Z_8ms","mean_Z_15ms","slope_Z_1ms","slope_Z_3ms","slope_Z_8ms","slope_Z_15ms","initial_Z","lagged_P_1ms","lagged_P_3ms","lagged_P_8ms","lagged_P_15ms","mean_P_1ms","mean_P_3ms","mean_P_8ms","mean_P_15ms","slope_P_1ms","slope_P_3ms","slope_P_8ms","slope_P_15ms","initial_P","lagged_Phase_1ms","lagged_Phase_3ms","lagged_Phase_8ms","lagged_Phase_15ms","mean_Phase_1ms","mean_Phase_3ms","mean_Phase_8ms","mean_Phase_15ms","slope_Phase_1ms","slope_Phase_3ms","slope_Phase_8ms","slope_Phase_15ms","initial_Phase","cumulative_max_Z_slope"],"feature_types":["int","float","float","float","float","float","float","float","float","float","float","float","float","float","float","float","float","float","float","float","float","float","float","float","float","float","float","float","float","float","float","float","float","float","float","float","float","float","float","float","float","float","float","float","float","float","float","float","float","float","float","float","float","float","float","float","float","float","float","float","float","float","float","float","float","float","float","float","float","float","float","float","float","float","float","float","float","float","float","float","float","float","float","float","float"],"gradient_booster":{"model":{"gbtree_model_param":{"num_parallel_tree":"1","num_trees":"780"},"iteration_indptr":[0,1,2,3,4,5,6,7,8,9,10,11,12,13,14,15,16,17,18,19,20,21,22,23,24,25,26,27,28,29,30,31,32,33,34,35,36,37,38,39,40,41,42,43,44,45,46,47,48,49,50,51,52,53,54,55,56,57,58,59,60,61,62,63,64,65,66,67,68,69,70,71,72,73,74,75,76,77,78,79,80,81,82,83,84,85,86,87,88,89,90,91,92,93,94,95,96,97,98,99,100,101,102,103,104,105,106,107,108,109,110,111,112,113,114,115,116,117,118,119,120,121,122,123,124,125,126,127,128,129,130,131,132,133,134,135,136,137,138,139,140,141,142,143,144,145,146,147,148,149,150,151,152,153,154,155,156,157,158,159,160,161,162,163,164,165,166,167,168,169,170,171,172,173,174,175,176,177,178,179,180,181,182,183,184,185,186,187,188,189,190,191,192,193,194,195,196,197,198,199,200,201,202,203,204,205,206,207,208,209,210,211,212,213,214,215,216,217,218,219,220,221,222,223,224,225,226,227,228,229,230,231,232,233,234,235,236,237,238,239,240,241,242,243,244,245,246,247,248,249,250,251,252,253,254,255,256,257,258,259,260,261,262,263,264,265,266,267,268,269,270,271,272,273,274,275,276,277,278,279,280,281,282,283,284,285,286,287,288,289,290,291,292,293,294,295,296,297,298,299,300,301,302,303,304,305,306,307,308,309,310,311,312,313,314,315,316,317,318,319,320,321,322,323,324,325,326,327,328,329,330,331,332,333,334,335,336,337,338,339,340,341,342,343,344,345,346,347,348,349,350,351,352,353,354,355,356,357,358,359,360,361,362,363,364,365,366,367,368,369,370,371,372,373,374,375,376,377,378,379,380,381,382,383,384,385,386,387,388,389,390,391,392,393,394,395,396,397,398,399,400,401,402,403,404,405,406,407,408,409,410,411,412,413,414,415,416,417,418,419,420,421,422,423,424,425,426,427,428,429,430,431,432,433,434,435,436,437,438,439,440,441,442,443,444,445,446,447,448,449,450,451,452,453,454,455,456,457,458,459,460,461,462,463,464,465,466,467,468,469,470,471,472,473,474,475,476,477,478,479,480,481,482,483,484,485,486,487,488,489,490,491,492,493,494,495,496,497,498,499,500,501,502,503,504,505,506,507,508,509,510,511,512,513,514,515,516,517,518,519,520,521,522,523,524,525,526,527,528,529,530,531,532,533,534,535,536,537,538,539,540,541,542,543,544,545,546,547,548,549,550,551,552,553,554,555,556,557,558,559,560,561,562,563,564,565,566,567,568,569,570,571,572,573,574,575,576,577,578,579,580,581,582,583,584,585,586,587,588,589,590,591,592,593,594,595,596,597,598,599,600,601,602,603,604,605,606,607,608,609,610,611,612,613,614,615,616,617,618,619,620,621,622,623,624,625,626,627,628,629,630,631,632,633,634,635,636,637,638,639,640,641,642,643,644,645,646,647,648,649,650,651,652,653,654,655,656,657,658,659,660,661,662,663,664,665,666,667,668,669,670,671,672,673,674,675,676,677,678,679,680,681,682,683,684,685,686,687,688,689,690,691,692,693,694,695,696,697,698,699,700,701,702,703,704,705,706,707,708,709,710,711,712,713,714,715,716,717,718,719,720,721,722,723,724,725,726,727,728,729,730,731,732,733,734,735,736,737,738,739,740,741,742,743,744,745,746,747,748,749,750,751,752,753,754,755,756,757,758,759,760,761,762,763,764,765,766,767,768,769,770,771,772,773,774,775,776,777,778,779,780],"tree_info":[0,0,0,0,0,0,0,0,0,0,0,0,0,0,0,0,0,0,0,0,0,0,0,0,0,0,0,0,0,0,0,0,0,0,0,0,0,0,0,0,0,0,0,0,0,0,0,0,0,0,0,0,0,0,0,0,0,0,0,0,0,0,0,0,0,0,0,0,0,0,0,0,0,0,0,0,0,0,0,0,0,0,0,0,0,0,0,0,0,0,0,0,0,0,0,0,0,0,0,0,0,0,0,0,0,0,0,0,0,0,0,0,0,0,0,0,0,0,0,0,0,0,0,0,0,0,0,0,0,0,0,0,0,0,0,0,0,0,0,0,0,0,0,0,0,0,0,0,0,0,0,0,0,0,0,0,0,0,0,0,0,0,0,0,0,0,0,0,0,0,0,0,0,0,0,0,0,0,0,0,0,0,0,0,0,0,0,0,0,0,0,0,0,0,0,0,0,0,0,0,0,0,0,0,0,0,0,0,0,0,0,0,0,0,0,0,0,0,0,0,0,0,0,0,0,0,0,0,0,0,0,0,0,0,0,0,0,0,0,0,0,0,0,0,0,0,0,0,0,0,0,0,0,0,0,0,0,0,0,0,0,0,0,0,0,0,0,0,0,0,0,0,0,0,0,0,0,0,0,0,0,0,0,0,0,0,0,0,0,0,0,0,0,0,0,0,0,0,0,0,0,0,0,0,0,0,0,0,0,0,0,0,0,0,0,0,0,0,0,0,0,0,0,0,0,0,0,0,0,0,0,0,0,0,0,0,0,0,0,0,0,0,0,0,0,0,0,0,0,0,0,0,0,0,0,0,0,0,0,0,0,0,0,0,0,0,0,0,0,0,0,0,0,0,0,0,0,0,0,0,0,0,0,0,0,0,0,0,0,0,0,0,0,0,0,0,0,0,0,0,0,0,0,0,0,0,0,0,0,0,0,0,0,0,0,0,0,0,0,0,0,0,0,0,0,0,0,0,0,0,0,0,0,0,0,0,0,0,0,0,0,0,0,0,0,0,0,0,0,0,0,0,0,0,0,0,0,0,0,0,0,0,0,0,0,0,0,0,0,0,0,0,0,0,0,0,0,0,0,0,0,0,0,0,0,0,0,0,0,0,0,0,0,0,0,0,0,0,0,0,0,0,0,0,0,0,0,0,0,0,0,0,0,0,0,0,0,0,0,0,0,0,0,0,0,0,0,0,0,0,0,0,0,0,0,0,0,0,0,0,0,0,0,0,0,0,0,0,0,0,0,0,0,0,0,0,0,0,0,0,0,0,0,0,0,0,0,0,0,0,0,0,0,0,0,0,0,0,0,0,0,0,0,0,0,0,0,0,0,0,0,0,0,0,0,0,0,0,0,0,0,0,0,0,0,0,0,0,0,0,0,0,0,0,0,0,0,0,0,0,0,0,0,0,0,0,0,0,0,0,0,0,0,0,0,0,0,0,0,0,0,0,0,0,0,0,0,0,0,0,0,0,0,0,0,0,0,0,0,0,0,0,0,0,0,0,0,0,0,0,0,0,0,0,0,0,0,0,0,0,0,0,0,0,0,0,0,0,0,0,0,0,0,0,0,0,0,0,0,0,0,0,0,0,0,0,0,0,0,0,0,0,0,0,0,0,0,0,0,0,0,0,0,0,0,0,0,0,0,0,0,0,0,0,0,0,0,0,0,0,0,0,0,0,0,0,0,0,0,0,0,0,0,0,0,0,0,0,0,0,0,0,0,0,0,0,0,0,0,0,0,0,0,0,0,0,0,0,0,0],"trees":[{"base_weights":[3.3629443E2,3.1379263E2,3.408818E2,1.7155981E2,3.2678326E2,1.9416006E2,3.5216205E2,1.8633244E2,1.6913605E2,1.7462273E2,3.575074E2,1.5533008E2,1.9875279E2,1.6576045E2,3.6629782E2,1.8194531E0,1.8739126E0,1.6272855E0,1.7201071E0,1.883545E0,1.5972167E0,1.8023841E0,3.8293195E0,1.6871895E0,1.5029457E0,1.9304904E0,2.8772638E0,1.5448706E0,1.7974057E0,3.6650677E0,3.5409331E0],"categories":[],"categories_nodes":[],"categories_segments":[],"categories_sizes":[],"default_left":[0,0,0,0,0,0,0,0,0,0,0,0,0,0,0,0,0,0,0,0,0,0,0,0,0,0,0,0,0,0,0],"id":0,"left_children":[1,3,5,7,9,11,13,15,17,19,21,23,25,27,29,-1,-1,-1,-1,-1,-1,-1,-1,-1,-1,-1,-1,-1,-1,-1,-1],"loss_changes":[Infinity,Infinity,Infinity,9.8396615E17,Infinity,Infinity,Infinity,1.798801E16,4.3480847E17,1.0342517E19,Infinity,8.199542E17,Infinity,1.6615749E19,Infinity,0E0,0E0,0E0,0E0,0E0,0E0,0E0,0E0,0E0,0E0,0E0,0E0,0E0,0E0,0E0,0E0],"parents":[2147483647,0,0,1,1,2,2,3,3,4,4,5,5,6,6,7,7,8,8,9,9,10,10,11,11,12,12,13,13,14,14],"right_children":[2,4,6,8,10,12,14,16,18,20,22,24,26,28,30,-1,-1,-1,-1,-1,-1,-1,-1,-1,-1,-1,-1,-1,-1,-1,-1],"split_conditions":[3.3E1,8.856E1,6.6E1,1.7E1,9.489E1,8.856E1,9.8E1,1.8914818E0,2.228526E0,1.6E1,1.073E2,3.6E1,1.0145E2,8.9E1,1.34E2,1.8194531E0,1.8739126E0,1.6272855E0,1.7201071E0,1.883545E0,1.5972167E0,1.8023841E0,3.8293195E0,1.6871895E0,1.5029457E0,1.9304904E0,2.8772638E0,1.5448706E0,1.7974057E0,3.6650677E0,3.5409331E0],"split_indices":[0,1,0,0,1,1,0,11,11,0,1,0,1,0,0,0,0,0,0,0,0,0,0,0,0,0,0,0,0,0,0],"split_type":[0,0,0,0,0,0,0,0,0,0,0,0,0,0,0,0,0,0,0,0,0,0,0,0,0,0,0,0,0,0,0],"sum_hessian":[1.9389703E18,3.2835348E17,1.6106169E18,2.7479824E16,3.0087366E17,1.1498683E17,1.49563E18,3.8731846E15,2.360664E16,5.0545967E16,2.503277E17,1.2161914E16,1.0282492E17,1.0542615E17,1.3902038E18,7.5304534E14,3.120139E15,7.3109186E15,1.629572E16,2.6305036E16,2.424093E16,3.1399469E16,2.1892824E17,3.323931E15,8.837983E15,9.663031E16,6.1946104E15,5.8362958E16,4.706319E16,1.3668046E18,2.3399313E16],"tree_param":{"num_deleted":"0","num_feature":"85","num_nodes":"31","size_leaf_vector":"1"}},{"base_weights":[3.2469653E2,1.7231506E2,3.347199E2,1.6562495E2,1.9667764E2,1.8560669E2,3.5014853E2,1.8430849E2,1.5049948E2,1.4084337E2,2.0856366E2,1.4888046E2,1.8658621E2,2.6387228E2,3.5835513E2,1.8798068E0,1.4200321E0,1.4709061E0,1.527671E0,1.3346593E0,1.6580114E0,2.2069619E0,1.6730261E0,1.4648149E0,1.7138566E0,1.5911181E0,1.8939564E0,1.4561119E0,2.7105227E0,3.3611095E0,3.626717E0],"categories":[],"categories_nodes":[],"categories_segments":[],"categories_sizes":[],"default_left":[0,0,0,0,0,0,0,0,0,0,0,0,0,0,0,0,0,0,0,0,0,0,0,0,0,0,0,0,0,0,0],"id":1,"left_children":[1,3,5,7,9,11,13,15,17,19,21,23,25,27,29,-1,-1,-1,-1,-1,-1,-1,-1,-1,-1,-1,-1,-1,-1,-1,-1],"loss_changes":[Infinity,1.6481486E19,Infinity,2.2419763E19,1.4458173E19,Infinity,Infinity,5.513954E18,3.3896624E17,7.040481E17,8.991718E18,2.021694E17,Infinity,Infinity,Infinity,0E0,0E0,0E0,0E0,0E0,0E0,0E0,0E0,0E0,0E0,0E0,0E0,0E0,0E0,0E0,0E0],"parents":[2147483647,0,0,1,1,2,2,3,3,4,4,5,5,6,6,7,7,8,8,9,9,10,10,11,11,12,12,13,13,14,14],"right_children":[2,4,6,8,10,12,14,16,18,20,22,24,26,28,30,-1,-1,-1,-1,-1,-1,-1,-1,-1,-1,-1,-1,-1,-1,-1,-1],"split_conditions":[1.056E1,2.804E1,1.314E1,2.208E1,1.0523E2,4.7523943E-1,1.571E1,2.500227E1,2.345E1,8.614267E1,2.958E1,1.1422E2,9.291127E-1,4.7523943E-1,1.974E1,1.8798068E0,1.4200321E0,1.4709061E0,1.527671E0,1.3346593E0,1.6580114E0,2.2069619E0,1.6730261E0,1.4648149E0,1.7138566E0,1.5911181E0,1.8939564E0,1.4561119E0,2.7105227E0,3.3611095E0,3.626717E0],"split_indices":[5,83,5,83,31,8,5,70,83,26,83,31,8,8,5,0,0,0,0,0,0,0,0,0,0,0,0,0,0,0,0],"split_type":[0,0,0,0,0,0,0,0,0,0,0,0,0,0,0,0,0,0,0,0,0,0,0,0,0,0,0,0,0,0,0],"sum_hessian":[1.6384258E18,1.0112084E17,1.537305E18,7.933496E16,2.1785874E16,1.4414893E17,1.393156E18,3.5492867E16,4.3842094E16,3.8237774E15,1.7962095E16,3.7447288E15,1.4040421E17,1.2100694E17,1.2721491E18,3.2658068E16,2.834798E15,1.7513937E16,2.6328158E16,2.9513652E15,8.724124E14,1.3880603E16,4.081493E15,3.3840058E15,3.6072303E14,1.3025324E16,1.2737889E17,6.9262087E15,1.1408073E17,2.0674627E17,1.06540285E18],"tree_param":{"num_deleted":"0","num_feature":"85","num_nodes":"31","size_leaf_vector":"1"}},{"base_weights":[3.139416E2,1.683788E2,3.2226712E2,1.5782094E2,2.0497864E2,1.5653621E2,3.365835E2,1.8189375E2,1.4697943E2,1.443447E2,2.454005E2,1.8779692E2,1.5053326E2,1.6547787E2,3.4522855E2,1.9135422E0,1.6249197E0,1.4555197E0,1.7242644E0,1.3877195E0,1.5289543E0,2.5638192E0,1.9218174E0,1.6371312E0,2.1723845E0,1.4430319E0,1.5767146E0,1.8064948E0,1.4368502E0,2.7370355E0,3.5341656E0],"categories":[],"categories_nodes":[],"categories_segments":[],"categories_sizes":[],"default_left":[0,0,0,0,0,0,0,0,0,0,0,0,0,0,0,0,0,0,0,0,0,0,0,0,0,0,0,0,0,0,0],"id":2,"left_children":[1,3,5,7,9,11,13,15,17,19,21,23,25,27,29,-1,-1,-1,-1,-1,-1,-1,-1,-1,-1,-1,-1,-1,-1,-1,-1],"loss_changes":[Infinity,2.890537E19,Infinity,1.5151798E19,4.104651E19,1.9514942E19,Infinity,3.3089495E18,1.4540294E18,3.192102E17,5.872483E18,1.1878737E19,3.8797103E18,1.9143254E19,Infinity,0E0,0E0,0E0,0E0,0E0,0E0,0E0,0E0,0E0,0E0,0E0,0E0,0E0,0E0,0E0,0E0],"parents":[2147483647,0,0,1,1,2,2,3,3,4,4,5,5,6,6,7,7,8,8,9,9,10,10,11,11,12,12,13,13,14,14],"right_children":[2,4,6,8,10,12,14,16,18,20,22,24,26,28,30,-1,-1,-1,-1,-1,-1,-1,-1,-1,-1,-1,-1,-1,-1,-1,-1],"split_conditions":[3.07E2,1.402E1,3.39E2,2.208E1,2.4522675E1,9.03E0,3.72E2,2.98E2,2.949E1,2.6024647E0,1.523E1,2.353E1,2.627E1,1.225E1,5.28E2,1.9135422E0,1.6249197E0,1.4555197E0,1.7242644E0,1.3877195E0,1.5289543E0,2.5638192E0,1.9218174E0,1.6371312E0,2.1723845E0,1.4430319E0,1.5767146E0,1.8064948E0,1.4368502E0,2.7370355E0,3.5341656E0],"split_indices":[3,5,3,83,70,5,3,3,83,11,5,83,83,74,3,0,0,0,0,0,0,0,0,0,0,0,0,0,0,0,0],"split_type":[0,0,0,0,0,0,0,0,0,0,0,0,0,0,0,0,0,0,0,0,0,0,0,0,0,0,0,0,0,0,0],"sum_hessian":[1.3826555E18,7.480328E16,1.3078522E18,5.8056005E16,1.6747275E16,1.03993176E17,1.203859E18,1.8027417E16,4.002859E16,6.698833E15,1.0048442E16,1.6752638E16,8.724054E16,5.7899307E16,1.1459597E18,1.2118388E16,5.9090294E15,3.7902438E16,2.1261511E15,4.0556592E15,2.643174E15,8.3296564E15,1.7187855E15,9.214765E15,7.5378727E15,4.6583404E16,4.065714E16,3.4135234E16,2.3764076E16,1.1771165E17,1.0282481E18],"tree_param":{"num_deleted":"0","num_feature":"85","num_nodes":"31","size_leaf_vector":"1"}},{"base_weights":[3.023558E2,3.4140384E2,2.0890297E2,2.4771559E2,3.4246158E2,2.8481482E2,1.5648639E2,2.0696484E2,2.5801907E2,2.83715E2,3.4630945E2,1.6760466E2,2.9610617E2,1.5657297E2,1.5643968E2,1.3922509E0,2.1626005E0,2.455904E0,2.6370142E0,2.588738E0,2.8653893E0,3.0706415E0,3.514229E0,1.3404924E0,2.078155E0,2.5224597E0,3.0563045E0,1.3653277E0,1.7899406E0,1.5613123E0,1.5961639E0],"categories":[],"categories_nodes":[],"categories_segments":[],"categories_sizes":[],"default_left":[0,0,0,0,0,0,0,1,1,0,0,1,0,1,0,0,0,0,0,0,0,0,0,0,0,0,0,0,0,0,0],"id":3,"left_children":[1,3,5,7,9,11,13,15,17,19,21,23,25,27,29,-1,-1,-1,-1,-1,-1,-1,-1,-1,-1,-1,-1,-1,-1,-1,-1],"loss_changes":[Infinity,Infinity,Infinity,3.8711957E18,Infinity,Infinity,Infinity,1.1715956E18,5.1974354E17,3.521815E18,Infinity,1.6711099E19,Infinity,3.2143739E19,Infinity,0E0,0E0,0E0,0E0,0E0,0E0,0E0,0E0,0E0,0E0,0E0,0E0,0E0,0E0,0E0,0E0],"parents":[2147483647,0,0,1,1,2,2,3,3,4,4,5,5,6,6,7,7,8,8,9,9,10,10,11,11,12,12,13,13,14,14],"right_children":[2,4,6,8,10,12,14,16,18,20,22,24,26,28,30,-1,-1,-1,-1,-1,-1,-1,-1,-1,-1,-1,-1,-1,-1,-1,-1],"split_conditions":[2.055E-1,4.7918057E-1,2.577E-1,2.992241E-1,9.5062107E-1,4.7918057E-1,2.759E-1,-3.9E1,2.2875334E1,3.8E1,1.4235421E0,-2E0,9.5062107E-1,3E0,2.973E-1,1.3922509E0,2.1626005E0,2.455904E0,2.6370142E0,2.588738E0,2.8653893E0,3.0706415E0,3.514229E0,1.3404924E0,2.078155E0,2.5224597E0,3.0563045E0,1.3653277E0,1.7899406E0,1.5613123E0,1.5961639E0],"split_indices":[2,11,2,11,11,11,2,84,78,84,11,84,11,84,2,0,0,0,0,0,0,0,0,0,0,0,0,0,0,0,0],"split_type":[0,0,0,0,0,0,0,0,0,0,0,0,0,0,0,0,0,0,0,0,0,0,0,0,0,0,0,0,0,0,0],"sum_hessian":[1.1709407E18,8.258643E17,3.4507647E17,9.219874E15,8.166444E17,1.4094873E17,2.0412774E17,1.8607047E15,7.35917E15,5.0201545E16,7.664429E17,1.2385099E16,1.2856363E17,7.1538096E16,1.3258964E17,2.2451678E14,1.6361878E15,2.3089468E15,5.050223E15,5.124401E15,4.507714E16,8.835217E16,6.780907E17,6.75126E15,5.6338385E15,2.2936923E16,1.0562671E17,3.7774693E16,3.3763406E16,1.2085523E17,1.1734424E16],"tree_param":{"num_deleted":"0","num_feature":"85","num_nodes":"31","size_leaf_vector":"1"}},{"base_weights":[2.909067E2,1.5395685E2,3.024241E2,1.4657016E2,1.8143604E2,1.4690457E2,3.1754395E2,1.5989807E2,1.3821054E2,2.1431258E2,1.553688E2,1.6297385E2,1.363748E2,2.1980594E2,3.243744E2,1.684184E0,1.5615071E0,1.3221294E0,1.39129E0,2.3144767E0,1.4070932E0,1.4020702E0,1.8317587E0,1.9780135E0,1.5723705E0,1.4286484E0,1.3007256E0,2.7372198E0,1.6974632E0,3.0847118E0,3.4665267E0],"categories":[],"categories_nodes":[],"categories_segments":[],"categories_sizes":[],"default_left":[0,0,0,0,0,0,0,0,0,0,1,0,0,0,0,0,0,0,0,0,0,0,0,0,0,0,0,0,0,0,0],"id":4,"left_children":[1,3,5,7,9,11,13,15,17,19,21,23,25,27,29,-1,-1,-1,-1,-1,-1,-1,-1,-1,-1,-1,-1,-1,-1,-1,-1],"loss_changes":[Infinity,1.5628335E19,Infinity,6.761029E18,1.397949E19,1.3726268E19,Infinity,7.4689385E17,2.0540636E17,9.098151E18,3.8358706E18,6.416222E18,2.004524E18,1.471053E20,Infinity,0E0,0E0,0E0,0E0,0E0,0E0,0E0,0E0,0E0,0E0,0E0,0E0,0E0,0E0,0E0,0E0],"parents":[2147483647,0,0,1,1,2,2,3,3,4,4,5,5,6,6,7,7,8,8,9,9,10,10,11,11,12,12,13,13,14,14],"right_children":[2,4,6,8,10,12,14,16,18,20,22,24,26,28,30,-1,-1,-1,-1,-1,-1,-1,-1,-1,-1,-1,-1,-1,-1,-1,-1],"split_conditions":[8.856E1,1.402E1,9.489E1,9.11E0,1.4915334E1,1.112E1,1.073E2,8.38E0,2.87875E2,2.3954477E0,3.7E-3,8.817333E0,1.2790667E1,2.4899334E-1,1.5954E2,1.684184E0,1.5615071E0,1.3221294E0,1.39129E0,2.3144767E0,1.4070932E0,1.4020702E0,1.8317587E0,1.9780135E0,1.5723705E0,1.4286484E0,1.3007256E0,2.7372198E0,1.6974632E0,3.0847118E0,3.4665267E0],"split_indices":[1,5,1,5,78,78,1,78,51,9,43,78,78,39,1,0,0,0,0,0,0,0,0,0,0,0,0,0,0,0,0],"split_type":[0,0,0,0,0,0,0,0,0,0,0,0,0,0,0,0,0,0,0,0,0,0,0,0,0,0,0,0,0,0,0],"sum_hessian":[9.925162E17,7.6994745E16,9.155215E17,6.068264E16,1.631211E16,8.112162E16,8.3439986E17,2.3390572E16,3.7292067E16,7.21385E15,9.09826E15,3.211363E16,4.900799E16,5.4503187E16,7.798967E17,7.14502E15,1.6245552E16,4.9523775E15,3.2339689E16,5.851581E15,1.3622687E15,5.88789E15,3.21037E15,4.5416455E15,2.7571985E16,2.414429E16,2.4863699E16,2.624084E16,2.8262347E16,4.550572E17,3.248395E17],"tree_param":{"num_deleted":"0","num_feature":"85","num_nodes":"31","size_leaf_vector":"1"}},{"base_weights":[2.8004373E2,1.507722E2,2.8745996E2,1.3904807E2,2.116589E2,1.3935757E2,3.0014282E2,1.6146594E2,1.3398883E2,1.298266E2,2.2126242E2,1.6927148E2,1.336394E2,1.4831929E2,3.0780118E2,1.3696809E0,1.7077794E0,1.2784687E0,1.3879572E0,1.2797312E0,1.5468866E0,2.3110151E0,1.7244389E0,1.9332267E0,1.4451187E0,1.2683904E0,1.3846594E0,1.2507769E0,1.6499895E0,2.504716E0,3.1408243E0],"categories":[],"categories_nodes":[],"categories_segments":[],"categories_sizes":[],"default_left":[0,0,0,0,0,0,0,0,0,0,0,0,0,0,0,0,0,0,0,0,0,0,0,0,0,0,0,0,0,0,0],"id":5,"left_children":[1,3,5,7,9,11,13,15,17,19,21,23,25,27,29,-1,-1,-1,-1,-1,-1,-1,-1,-1,-1,-1,-1,-1,-1,-1,-1],"loss_changes":[Infinity,3.2567921E19,Infinity,4.3389368E18,5.7892366E18,1.0730108E19,Infinity,1.6069055E18,9.215139E17,3.5652764E16,3.1667694E18,5.9947485E18,1.7285378E18,1.3636407E19,Infinity,0E0,0E0,0E0,0E0,0E0,0E0,0E0,0E0,0E0,0E0,0E0,0E0,0E0,0E0,0E0,0E0],"parents":[2147483647,0,0,1,1,2,2,3,3,4,4,5,5,6,6,7,7,8,8,9,9,10,10,11,11,12,12,13,13,14,14],"right_children":[2,4,6,8,10,12,14,16,18,20,22,24,26,28,30,-1,-1,-1,-1,-1,-1,-1,-1,-1,-1,-1,-1,-1,-1,-1,-1],"split_conditions":[3.07E2,1.1011E2,3.39E2,8.433333E0,1.064E1,8.976666E0,3.72E2,1.0638E2,9.993E1,3.2441723E0,1.1035E2,1.0615E2,1.0366E2,1.1251E2,5.28E2,1.3696809E0,1.7077794E0,1.2784687E0,1.3879572E0,1.2797312E0,1.5468866E0,2.3110151E0,1.7244389E0,1.9332267E0,1.4451187E0,1.2683904E0,1.3846594E0,1.2507769E0,1.6499895E0,2.504716E0,3.1408243E0],"split_indices":[3,31,3,76,72,76,3,31,31,6,31,31,31,31,3,0,0,0,0,0,0,0,0,0,0,0,0,0,0,0,0],"split_type":[0,0,0,0,0,0,0,0,0,0,0,0,0,0,0,0,0,0,0,0,0,0,0,0,0,0,0,0,0,0,0],"sum_hessian":[8.40875E17,4.562327E16,7.9525175E17,3.825669E16,7.3665776E15,6.2730007E16,7.325217E17,7.044016E15,3.1212674E16,7.737126E14,6.592865E15,1.0066782E16,5.2663227E16,3.5175827E16,6.9734594E17,1.9400802E15,5.1039357E15,1.3703338E16,1.7509336E16,7.200341E14,5.3678543E13,5.486992E15,1.1058726E15,5.106442E15,4.9603393E15,2.1861435E16,3.0801792E16,1.4696957E16,2.0478868E16,6.8859317E16,6.284866E17],"tree_param":{"num_deleted":"0","num_feature":"85","num_nodes":"31","size_leaf_vector":"1"}},{"base_weights":[2.697649E2,2.5771826E2,2.7224475E2,1.3410669E2,2.6454257E2,1.5826347E2,2.803283E2,1.4817133E2,1.3097116E2,1.3294624E2,2.7954767E2,1.3668114E2,2.3928348E2,1.3009781E2,2.911207E2,1.4661372E0,1.4872302E0,1.2574307E0,1.337183E0,1.2449046E0,1.4158704E0,1.442006E0,3.022919E0,1.5648485E0,1.2421525E0,1.0851727E0,2.5149965E0,1.5281118E0,1.2056503E0,2.911204E0,2.9113612E0],"categories":[],"categories_nodes":[],"categories_segments":[],"categories_sizes":[],"default_left":[0,0,0,0,0,0,0,0,0,0,0,0,0,0,0,0,0,0,0,0,0,0,0,0,0,0,0,0,0,0,0],"id":6,"left_children":[1,3,5,7,9,11,13,15,17,19,21,23,25,27,29,-1,-1,-1,-1,-1,-1,-1,-1,-1,-1,-1,-1,-1,-1,-1,-1],"loss_changes":[Infinity,Infinity,Infinity,2.8043704E17,Infinity,6.837196E19,Infinity,9.9615753E14,7.468763E16,8.614014E17,Infinity,7.622448E18,1.313897E19,8.0011373E18,Infinity,0E0,0E0,0E0,0E0,0E0,0E0,0E0,0E0,0E0,0E0,0E0,0E0,0E0,0E0,0E0,0E0],"parents":[2147483647,0,0,1,1,2,2,3,3,4,4,5,5,6,6,7,7,8,8,9,9,10,10,11,11,12,12,13,13,14,14],"right_children":[2,4,6,8,10,12,14,16,18,20,22,24,26,28,30,-1,-1,-1,-1,-1,-1,-1,-1,-1,-1,-1,-1,-1,-1,-1,-1],"split_conditions":[3.3E1,3.07E2,6.6E1,1.7E1,3.39E2,3.86E2,9.8E1,2.5011568E0,2.5737617E0,2.469958E0,3.72E2,2.6933333E-1,9.780115E-1,2.208E1,1.34E2,1.4661372E0,1.4872302E0,1.2574307E0,1.337183E0,1.2449046E0,1.4158704E0,1.442006E0,3.022919E0,1.5648485E0,1.2421525E0,1.0851727E0,2.5149965E0,1.5281118E0,1.2056503E0,2.911204E0,2.9113612E0],"split_indices":[0,3,0,0,3,3,0,11,11,11,3,37,11,83,0,0,0,0,0,0,0,0,0,0,0,0,0,0,0,0,0],"split_type":[0,0,0,0,0,0,0,0,0,0,0,0,0,0,0,0,0,0,0,0,0,0,0,0,0,0,0,0,0,0,0],"sum_hessian":[7.119859E17,1.2154554E17,5.9044036E17,6.3591807E15,1.1518636E17,3.910097E16,5.513394E17,1.1592531E15,5.1999276E15,1.1789664E16,1.0339669E17,3.0876108E16,8.2248613E15,3.695296E16,5.143864E17,3.0320708E14,8.560461E14,1.7911603E15,3.408767E15,5.958631E15,5.8310323E15,1.4875443E16,8.852125E16,1.1927577E16,1.8948528E16,7.027189E14,7.5221424E15,1.0924226E16,2.602873E16,5.0503143E17,9.355008E15],"tree_param":{"num_deleted":"0","num_feature":"85","num_nodes":"31","size_leaf_vector":"1"}},{"base_weights":[2.6058173E2,1.3578671E2,2.7073254E2,1.281955E2,1.7010016E2,1.3049617E2,2.8401657E2,1.2012203E2,1.3620453E2,2.0824995E2,1.3130696E2,1.24287025E2,1.7085463E2,2.0215756E2,2.89314E2,1.1564337E0,1.2550758E0,1.5970682E0,1.2744054E0,2.1711926E0,1.9486785E0,1.4512689E0,1.168208E0,1.2152361E0,1.641188E0,1.7787156E0,1.3218791E0,1.5109365E0,2.4746852E0,2.7455351E0,3.0912836E0],"categories":[],"categories_nodes":[],"categories_segments":[],"categories_sizes":[],"default_left":[0,0,0,0,0,0,0,0,0,0,0,1,0,1,0,0,0,0,0,0,0,0,0,0,0,0,0,0,0,0,0],"id":7,"left_children":[1,3,5,7,9,11,13,15,17,19,21,23,25,27,29,-1,-1,-1,-1,-1,-1,-1,-1,-1,-1,-1,-1,-1,-1,-1,-1],"loss_changes":[Infinity,1.1783387E19,Infinity,2.395141E18,1.2128123E19,1.2059303E19,Infinity,4.4492398E17,3.8301707E18,4.903822E17,8.134451E17,4.5907865E18,1.7409579E18,7.14444E19,Infinity,0E0,0E0,0E0,0E0,0E0,0E0,0E0,0E0,0E0,0E0,0E0,0E0,0E0,0E0,0E0,0E0],"parents":[2147483647,0,0,1,1,2,2,3,3,4,4,5,5,6,6,7,7,8,8,9,9,10,10,11,11,12,12,13,13,14,14],"right_children":[2,4,6,8,10,12,14,16,18,20,22,24,26,28,30,-1,-1,-1,-1,-1,-1,-1,-1,-1,-1,-1,-1,-1,-1,-1,-1],"split_conditions":[8.856E1,1.1011E2,9.489E1,1.0592E2,2.4536777E1,1.1521E2,1.073E2,2.4522675E1,2.89E2,8.593E1,2.500227E1,3.8426123E0,2.5219313E1,3.9946667E2,1.5954E2,1.1564337E0,1.2550758E0,1.5970682E0,1.2744054E0,2.1711926E0,1.9486785E0,1.4512689E0,1.168208E0,1.2152361E0,1.641188E0,1.7787156E0,1.3218791E0,1.5109365E0,2.4746852E0,2.7455351E0,3.0912836E0],"split_indices":[1,31,1,31,70,31,1,70,49,1,70,8,70,52,1,0,0,0,0,0,0,0,0,0,0,0,0,0,0,0,0],"split_type":[0,0,0,0,0,0,0,0,0,0,0,0,0,0,0,0,0,0,0,0,0,0,0,0,0,0,0,0,0,0,0],"sum_hessian":[6.0138634E17,4.5237177E16,5.5614916E17,3.704226E16,8.194918E15,4.8123257E16,5.080259E17,1.844694E16,1.8595316E16,4.131722E15,4.0631956E15,4.1706692E16,6.416562E15,3.0878148E16,4.7714774E17,1.0071452E16,8.3754885E15,5.0507613E15,1.3544555E16,2.4848335E15,1.6468888E15,2.0794143E15,1.9837814E15,3.900092E16,2.705776E15,5.4309883E15,9.8557346E14,1.4517459E16,1.6360688E16,2.7344677E17,2.0370097E17],"tree_param":{"num_deleted":"0","num_feature":"85","num_nodes":"31","size_leaf_vector":"1"}},{"base_weights":[2.5083597E2,1.3059293E2,2.60625E2,1.9291995E2,1.2369513E2,1.2568167E2,2.734021E2,1.142148E2,1.9994945E2,1.3255238E2,1.1502095E2,1.6818452E2,1.2001739E2,1.966132E2,2.783228E2,1.1279744E0,1.1511097E0,1.8746213E0,2.087055E0,1.533351E0,1.2558702E0,1.0080831E0,1.1680411E0,1.0087014E0,1.695754E0,1.6701884E0,1.169593E0,2.361099E0,1.4435976E0,2.6440074E0,2.969707E0],"categories":[],"categories_nodes":[],"categories_segments":[],"categories_sizes":[],"default_left":[0,0,0,0,0,0,0,0,0,0,0,0,0,0,0,0,0,0,0,0,0,0,0,0,0,0,0,0,0,0,0],"id":8,"left_children":[1,3,5,7,9,11,13,15,17,19,21,23,25,27,29,-1,-1,-1,-1,-1,-1,-1,-1,-1,-1,-1,-1,-1,-1,-1,-1],"loss_changes":[Infinity,1.6491126E19,Infinity,2.1146423E18,2.6533942E18,9.811444E18,Infinity,3.982981E14,3.836592E17,2.4736373E18,4.4221478E17,4.487151E17,5.168901E18,5.349636E19,Infinity,0E0,0E0,0E0,0E0,0E0,0E0,0E0,0E0,0E0,0E0,0E0,0E0,0E0,0E0,0E0,0E0],"parents":[2147483647,0,0,1,1,2,2,3,3,4,4,5,5,6,6,7,7,8,8,9,9,10,10,11,11,12,12,13,13,14,14],"right_children":[2,4,6,8,10,12,14,16,18,20,22,24,26,28,30,-1,-1,-1,-1,-1,-1,-1,-1,-1,-1,-1,-1,-1,-1,-1,-1],"split_conditions":[8.856E1,2.233E-1,9.489E1,2.228E-1,2.351E-1,2.195E-1,1.073E2,2.2476485E0,1.348812E0,2.89E2,9.82E0,1.033875E1,8.817333E0,2.501E-1,1.5954E2,1.1279744E0,1.1511097E0,1.8746213E0,2.087055E0,1.533351E0,1.2558702E0,1.0080831E0,1.1680411E0,1.0087014E0,1.695754E0,1.6701884E0,1.169593E0,2.361099E0,1.4435976E0,2.6440074E0,2.969707E0],"split_indices":[1,44,1,44,44,44,1,10,10,3,77,77,78,36,1,0,0,0,0,0,0,0,0,0,0,0,0,0,0,0,0],"split_type":[0,0,0,0,0,0,0,0,0,0,0,0,0,0,0,0,0,0,0,0,0,0,0,0,0,0,0,0,0,0,0],"sum_hessian":[5.0953403E17,3.835862E16,4.711754E17,3.8221827E15,3.4536438E16,4.075437E16,4.3042104E17,3.1338544E14,3.5087972E15,1.7087885E16,1.7448554E16,4.792568E15,3.5961802E16,2.5920808E16,4.0450023E17,1.2139341E14,1.9199203E14,1.4462505E15,2.0625466E15,4.2894305E15,1.2798454E16,1.9451126E15,1.5503441E16,9.702197E13,4.695546E15,2.196865E15,3.3764937E16,1.4762391E16,1.1158417E16,2.3159616E17,1.7290406E17],"tree_param":{"num_deleted":"0","num_feature":"85","num_nodes":"31","size_leaf_vector":"1"}},{"base_weights":[2.4147626E2,1.2562431E2,2.5091487E2,1.19913284E2,1.4665443E2,1.210494E2,2.6320633E2,1.3239223E2,1.1390867E2,1.25435616E2,1.7300003E2,1.0896539E2,1.4110187E2,1.9135188E2,2.677634E2,1.3558246E0,1.1718152E0,1.1455407E0,1.0208489E0,1.6647989E0,1.1816503E0,1.9740154E0,1.2543136E0,1.0399246E0,1.1408579E0,1.4915147E0,1.2864032E0,1.4074736E0,2.2979643E0,2.5463686E0,2.8530724E0],"categories":[],"categories_nodes":[],"categories_segments":[],"categories_sizes":[],"default_left":[0,0,0,0,0,1,0,0,0,0,0,1,0,0,0,0,0,0,0,0,0,0,0,0,0,0,0,0,0,0,0],"id":9,"left_children":[1,3,5,7,9,11,13,15,17,19,21,23,25,27,29,-1,-1,-1,-1,-1,-1,-1,-1,-1,-1,-1,-1,-1,-1,-1,-1],"loss_changes":[Infinity,3.905782E18,Infinity,1.916352E18,3.8825075E18,8.362903E18,Infinity,4.0317772E17,1.31783066E17,1.1479693E18,3.5963354E18,5.4834844E17,1.301769E18,4.230787E19,Infinity,0E0,0E0,0E0,0E0,0E0,0E0,0E0,0E0,0E0,0E0,0E0,0E0,0E0,0E0,0E0,0E0],"parents":[2147483647,0,0,1,1,2,2,3,3,4,4,5,5,6,6,7,7,8,8,9,9,10,10,11,11,12,12,13,13,14,14],"right_children":[2,4,6,8,10,12,14,16,18,20,22,24,26,28,30,-1,-1,-1,-1,-1,-1,-1,-1,-1,-1,-1,-1,-1,-1,-1,-1],"split_conditions":[8.856E1,1.40425E1,9.489E1,8.87125E0,-1.7E-1,3E0,1.073E2,4E0,4E0,3.7379754E-1,-2E0,1E0,1.101E1,4.01E2,1.5954E2,1.3558246E0,1.1718152E0,1.1455407E0,1.0208489E0,1.6647989E0,1.1816503E0,1.9740154E0,1.2543136E0,1.0399246E0,1.1408579E0,1.4915147E0,1.2864032E0,1.4074736E0,2.2979643E0,2.5463686E0,2.8530724E0],"split_indices":[1,77,1,77,81,84,1,84,84,18,56,84,77,49,1,0,0,0,0,0,0,0,0,0,0,0,0,0,0,0,0],"split_type":[0,0,0,0,0,0,0,0,0,0,0,0,0,0,0,0,0,0,0,0,0,0,0,0,0,0,0,0,0,0,0],"sum_hessian":[4.3167655E17,3.2519854E16,3.9915667E17,2.5574681E16,6.9451726E15,3.451265E16,3.6464403E17,8.3082535E15,1.7266428E16,3.8468811E15,3.0982912E15,2.153515E16,1.2977498E16,2.1746897E16,3.4289713E17,6.8678224E15,1.4404311E15,1.6372718E16,8.9371035E14,5.788915E14,3.2679896E15,2.0478149E15,1.0504763E15,1.092491E16,1.0610241E16,7.8844776E15,5.093021E15,9.38864E15,1.2358257E16,1.9614135E17,1.4675579E17],"tree_param":{"num_deleted":"0","num_feature":"85","num_nodes":"31","size_leaf_vector":"1"}},{"base_weights":[2.325088E2,2.6280566E2,1.7515172E2,1.4094693E2,2.629086E2,1.7710136E2,1.654824E2,7.481859E1,2.0236218E2,2.1216461E2,2.64107E2,1.7752766E2,1.359368E2,1.22562614E2,2.1321558E2,6.474755E-1,9.923543E-1,2.0034935E0,2.0422645E0,2.202685E0,2.0028725E0,2.281093E0,2.6771703E0,1.775316E0,4.573829E-1,1.5794935E0,1.097605E0,1.4568887E0,1.0778989E0,1.899607E0,2.5114977E0],"categories":[],"categories_nodes":[],"categories_segments":[],"categories_sizes":[],"default_left":[0,0,0,0,0,0,1,1,0,0,0,0,0,0,0,0,0,0,0,0,0,0,0,0,0,0,0,0,0,0,0],"id":10,"left_children":[1,3,5,7,9,11,13,15,17,19,21,23,25,27,29,-1,-1,-1,-1,-1,-1,-1,-1,-1,-1,-1,-1,-1,-1,-1,-1],"loss_changes":[Infinity,Infinity,Infinity,8.202266E17,Infinity,Infinity,4.344728E19,2.3913966E16,3.9280053E14,5.30897E17,Infinity,Infinity,6.211911E17,3.814936E18,8.8574194E18,0E0,0E0,0E0,0E0,0E0,0E0,0E0,0E0,0E0,0E0,0E0,0E0,0E0,0E0,0E0,0E0],"parents":[2147483647,0,0,1,1,2,2,3,3,4,4,5,5,6,6,7,7,8,8,9,9,10,10,11,11,12,12,13,13,14,14],"right_children":[2,4,6,8,10,12,14,16,18,20,22,24,26,28,30,-1,-1,-1,-1,-1,-1,-1,-1,-1,-1,-1,-1,-1,-1,-1,-1],"split_conditions":[2.4845448E1,4.776015E-1,2.4994656E1,3.992834E-1,9.493186E-1,4.7182236E0,4.0386667E2,-1.4E1,4.2485574E-1,1.838E-1,1.4122938E0,4.6737895E0,2.825E-1,2.238E-1,1.1762629E0,6.474755E-1,9.923543E-1,2.0034935E0,2.0422645E0,2.202685E0,2.0028725E0,2.281093E0,2.6771703E0,1.775316E0,4.573829E-1,1.5794935E0,1.097605E0,1.4568887E0,1.0778989E0,1.899607E0,2.5114977E0],"split_indices":[4,7,4,7,7,7,52,54,7,34,7,8,34,44,7,0,0,0,0,0,0,0,0,0,0,0,0,0,0,0,0],"split_type":[0,0,0,0,0,0,0,0,0,0,0,0,0,0,0,0,0,0,0,0,0,0,0,0,0,0,0,0,0,0,0],"sum_hessian":[3.6565317E17,2.3926825E17,1.2638492E17,2.0196215E14,2.3906628E17,1.0517766E17,2.1207262E16,9.724953E13,1.0471262E14,5.5156346E15,2.3355065E17,1.0409959E17,1.07806686E15,1.1166648E16,1.0040613E16,6.8851048E13,2.839848E13,5.0350283E13,5.4362336E13,3.278635E15,2.2369995E15,2.1286927E16,2.1226373E17,1.0409649E17,3.1013245E12,5.856084E14,4.9245847E14,4.352671E15,6.813977E15,6.2246843E15,3.8159295E15],"tree_param":{"num_deleted":"0","num_feature":"85","num_nodes":"31","size_leaf_vector":"1"}},{"base_weights":[2.2521733E2,2.4985544E2,1.5925525E2,1.7344301E2,2.5076123E2,2.2680733E2,1.1553625E2,1.4489908E2,1.7844804E2,2.0014597E2,2.5378378E2,1.907417E2,2.4089983E2,1.0213832E2,1.2228564E2,1.3424395E0,1.6258284E0,2.009163E0,1.7620089E0,2.0580683E0,1.9489468E0,2.2036567E0,2.5789895E0,1.3346587E0,2.0101755E0,2.0051944E0,2.457366E0,9.107857E-1,1.059161E0,1.6985713E0,1.1960266E0],"categories":[],"categories_nodes":[],"categories_segments":[],"categories_sizes":[],"default_left":[0,0,0,0,0,1,1,0,0,0,0,1,0,1,0,0,0,0,0,0,0,0,0,0,0,0,0,0,0,0,0],"id":11,"left_children":[1,3,5,7,9,11,13,15,17,19,21,23,25,27,29,-1,-1,-1,-1,-1,-1,-1,-1,-1,-1,-1,-1,-1,-1,-1,-1],"loss_changes":[Infinity,Infinity,2.4738259E20,3.753293E17,Infinity,1.6727495E19,4.598527E18,7.385145E16,1.1285827E17,3.712303E17,Infinity,5.4423187E18,4.62196E18,7.1177985E17,4.3162077E18,0E0,0E0,0E0,0E0,0E0,0E0,0E0,0E0,0E0,0E0,0E0,0E0,0E0,0E0,0E0,0E0],"parents":[2147483647,0,0,1,1,2,2,3,3,4,4,5,5,6,6,7,7,8,8,9,9,10,10,11,11,12,12,13,13,14,14],"right_children":[2,4,6,8,10,12,14,16,18,20,22,24,26,28,30,-1,-1,-1,-1,-1,-1,-1,-1,-1,-1,-1,-1,-1,-1,-1,-1],"split_conditions":[2.055E-1,4.7523943E-1,2.501E-1,2.5286826E-1,9.291127E-1,1.1753963E0,-4E-1,1.489E2,2.4881674E1,2.487546E1,1.3981531E0,4.546508E-1,4.06E2,-1.54E0,2.580875E-1,1.3424395E0,1.6258284E0,2.009163E0,1.7620089E0,2.0580683E0,1.9489468E0,2.2036567E0,2.5789895E0,1.3346587E0,2.0101755E0,2.0051944E0,2.457366E0,9.107857E-1,1.059161E0,1.6985713E0,1.1960266E0],"split_indices":[2,8,2,8,8,8,82,20,63,63,8,8,48,82,38,0,0,0,0,0,0,0,0,0,0,0,0,0,0,0,0],"split_type":[0,0,0,0,0,0,0,0,0,0,0,0,0,0,0,0,0,0,0,0,0,0,0,0,0,0,0,0,0,0,0],"sum_hessian":[3.0802214E17,2.2425761E17,8.376453E16,2.6272218E15,2.2163038E17,3.291154E16,5.0852997E16,3.9194425E14,2.2352775E15,1.2489108E16,2.0914128E17,9.246877E15,2.3664662E16,1.7035861E16,3.3817136E16,2.4457737E14,1.4736687E14,2.0323312E14,2.0320443E15,6.010172E15,6.4789356E15,2.2930388E16,1.8621088E17,1.4066204E15,7.8402566E15,2.5313493E15,2.1133314E16,4.337495E15,1.2698366E16,1.8054237E15,3.2011712E16],"tree_param":{"num_deleted":"0","num_feature":"85","num_nodes":"31","size_leaf_vector":"1"}},{"base_weights":[2.1675368E2,2.428731E2,1.661255E2,1.7506477E2,2.430213E2,1.119996E2,2.1613039E2,7.5629875E1,1.8284251E2,1.9796559E2,2.4462372E2,9.356849E1,1.1994904E2,1.8659758E2,2.3497052E2,8.156079E-1,6.160099E-1,1.8176956E0,1.8669409E0,1.8762716E0,2.0496037E0,2.1303577E0,2.4827275E0,9.581081E-1,7.829093E-1,1.6912135E0,1.1604327E0,1.9351804E0,1.4818894E0,1.9438608E0,2.3807914E0],"categories":[],"categories_nodes":[],"categories_segments":[],"categories_sizes":[],"default_left":[0,0,1,0,0,0,1,0,0,0,0,0,0,0,0,0,0,0,0,0,0,0,0,0,0,0,0,0,0,0,0],"id":12,"left_children":[1,3,5,7,9,11,13,15,17,19,21,23,25,27,29,-1,-1,-1,-1,-1,-1,-1,-1,-1,-1,-1,-1,-1,-1,-1,-1],"loss_changes":[Infinity,Infinity,2.4042467E20,2.904382E17,Infinity,6.2500463E18,2.5690784E19,2.2667978E15,1.4381612E15,4.2669847E17,Infinity,4.403588E17,5.723864E18,4.7800784E18,3.556577E18,0E0,0E0,0E0,0E0,0E0,0E0,0E0,0E0,0E0,0E0,0E0,0E0,0E0,0E0,0E0,0E0],"parents":[2147483647,0,0,1,1,2,2,3,3,4,4,5,5,6,6,7,7,8,8,9,9,10,10,11,11,12,12,13,13,14,14],"right_children":[2,4,6,8,10,12,14,16,18,20,22,24,26,28,30,-1,-1,-1,-1,-1,-1,-1,-1,-1,-1,-1,-1,-1,-1,-1,-1],"split_conditions":[2.4845448E1,5.4442835E-1,4.0066666E2,3.3823904E-1,9.9153394E-1,1.0592E2,1.1885296E0,9.654E1,2.4791754E1,1.408325E2,1.4390355E0,1.62E1,2.4536777E1,1.2E-3,4.06E2,8.156079E-1,6.160099E-1,1.8176956E0,1.8669409E0,1.8762716E0,2.0496037E0,2.1303577E0,2.4827275E0,9.581081E-1,7.829093E-1,1.6912135E0,1.1604327E0,1.9351804E0,1.4818894E0,1.9438608E0,2.3807914E0],"split_indices":[4,13,50,13,13,31,13,19,4,25,13,72,70,43,48,0,0,0,0,0,0,0,0,0,0,0,0,0,0,0,0],"split_type":[0,0,0,0,0,0,0,0,0,0,0,0,0,0,0,0,0,0,0,0,0,0,0,0,0,0,0,0,0,0,0],"sum_hessian":[2.6101358E17,1.7218314E17,8.883043E16,3.7554412E14,1.718076E17,4.265747E16,4.617296E16,2.724387E13,3.4830024E14,5.900506E15,1.659071E17,1.2854281E16,2.9803188E16,1.7983294E16,2.8189666E16,1.9148543E13,8.0953276E12,2.724129E14,7.588736E13,2.381139E15,3.5193668E15,1.7180912E16,1.4872618E17,1.1209097E16,1.6451835E15,2.1930806E15,2.761011E16,1.5237756E16,2.7455382E15,2.0056053E15,2.618406E16],"tree_param":{"num_deleted":"0","num_feature":"85","num_nodes":"31","size_leaf_vector":"1"}},{"base_weights":[2.0864377E2,2.335234E2,1.6026952E2,1.6808054E2,2.3366664E2,1.0838497E2,2.0817937E2,7.2693504E1,1.7553351E2,1.9013219E2,2.3521655E2,1.3376704E2,9.8082016E1,1.8152785E2,2.278509E2,7.831283E-1,5.935898E-1,1.7305888E0,1.7775557E0,1.8024005E0,1.9682295E0,2.0473328E0,2.3873987E0,1.6338068E0,1.2739015E0,1.196685E0,9.2731637E-1,1.4995073E0,1.894079E0,2.0477545E0,2.342501E0],"categories":[],"categories_nodes":[],"categories_segments":[],"categories_sizes":[],"default_left":[0,0,1,0,0,0,0,0,0,0,0,0,0,0,0,0,0,0,0,0,0,0,0,0,0,0,0,0,0,0,0],"id":13,"left_children":[1,3,5,7,9,11,13,15,17,19,21,23,25,27,29,-1,-1,-1,-1,-1,-1,-1,-1,-1,-1,-1,-1,-1,-1,-1,-1],"loss_changes":[Infinity,Infinity,1.8670587E20,2.2673579E17,Infinity,9.429869E18,2.0473364E19,1.731937E15,1.6267275E15,3.3155993E17,Infinity,1.9660323E18,2.9622427E18,4.126388E18,3.3176048E18,0E0,0E0,0E0,0E0,0E0,0E0,0E0,0E0,0E0,0E0,0E0,0E0,0E0,0E0,0E0,0E0],"parents":[2147483647,0,0,1,1,2,2,3,3,4,4,5,5,6,6,7,7,8,8,9,9,10,10,11,11,12,12,13,13,14,14],"right_children":[2,4,6,8,10,12,14,16,18,20,22,24,26,28,30,-1,-1,-1,-1,-1,-1,-1,-1,-1,-1,-1,-1,-1,-1,-1,-1],"split_conditions":[2.4845448E1,5.4442835E-1,4E2,3.3823904E-1,9.9153394E-1,2.238E-1,1.2872317E0,9.857E1,-1.5E-3,1.408325E2,1.4390355E0,1.1035E2,9.03E0,4.9042284E-1,1.459E1,7.831283E-1,5.935898E-1,1.7305888E0,1.7775557E0,1.8024005E0,1.9682295E0,2.0473328E0,2.3873987E0,1.6338068E0,1.2739015E0,1.196685E0,9.2731637E-1,1.4995073E0,1.894079E0,2.0477545E0,2.342501E0],"split_indices":[4,13,51,13,13,44,13,25,40,25,13,31,74,13,74,0,0,0,0,0,0,0,0,0,0,0,0,0,0,0,0],"split_type":[0,0,0,0,0,0,0,0,0,0,0,0,0,0,0,0,0,0,0,0,0,0,0,0,0,0,0,0,0,0,0],"sum_hessian":[2.2114733E17,1.4603782E17,7.510951E16,3.1893417E14,1.4571888E17,3.605899E16,3.9050517E16,2.311364E13,2.9582054E14,5.0095505E15,1.4070933E17,1.0410929E16,2.564806E16,1.6583191E16,2.2467328E16,1.6261045E13,6.852593E12,1.3995651E14,1.5586403E14,2.0212215E15,2.988329E15,1.4578502E16,1.2613083E17,1.8446362E15,8.566293E15,5.094389E15,2.0553673E16,3.3118544E15,1.3271336E16,4.8778443E15,1.7589485E16],"tree_param":{"num_deleted":"0","num_feature":"85","num_nodes":"31","size_leaf_vector":"1"}},{"base_weights":[2.008057E2,2.2194096E2,1.4338063E2,1.6072348E2,2.2319768E2,1.0492378E2,2.0479001E2,1.4162532E2,1.6394977E2,1.8171771E2,2.2606068E2,9.453743E1,1.2224018E2,1.7548637E2,2.1720882E2,1.306286E0,1.4845428E0,1.5553411E0,1.7010205E0,1.9281989E0,1.7595261E0,1.9700679E0,2.2980118E0,1.1657043E0,8.852676E-1,1.5677533E0,1.1677687E0,1.4208496E0,1.8413109E0,1.9863094E0,2.2457438E0],"categories":[],"categories_nodes":[],"categories_segments":[],"categories_sizes":[],"default_left":[0,0,1,0,0,0,0,0,0,0,0,0,0,1,0,0,0,0,0,0,0,0,0,0,0,0,0,0,0,0,0],"id":14,"left_children":[1,3,5,7,9,11,13,15,17,19,21,23,25,27,29,-1,-1,-1,-1,-1,-1,-1,-1,-1,-1,-1,-1,-1,-1,-1,-1],"loss_changes":[Infinity,Infinity,1.1906328E20,1.6978219E17,Infinity,5.575808E18,7.065233E18,2.9904517E16,1.2205019E17,5.5468163E17,Infinity,2.566348E18,2.1930243E18,1.6685837E18,1.8658976E18,0E0,0E0,0E0,0E0,0E0,0E0,0E0,0E0,0E0,0E0,0E0,0E0,0E0,0E0,0E0,0E0],"parents":[2147483647,0,0,1,1,2,2,3,3,4,4,5,5,6,6,7,7,8,8,9,9,10,10,11,11,12,12,13,13,14,14],"right_children":[2,4,6,8,10,12,14,16,18,20,22,24,26,28,30,-1,-1,-1,-1,-1,-1,-1,-1,-1,-1,-1,-1,-1,-1,-1,-1],"split_conditions":[2.055E-1,4.541417E-1,9.996E1,1.7604724E-1,9.007254E-1,4.94E2,1.1246464E0,1.0070669E-1,5.2E1,2.74E1,1.348705E0,9.03E0,4.95E2,6E0,1.467E1,1.306286E0,1.4845428E0,1.5553411E0,1.7010205E0,1.9281989E0,1.7595261E0,1.9700679E0,2.2980118E0,1.1657043E0,8.852676E-1,1.5677533E0,1.1677687E0,1.4208496E0,1.8413109E0,1.9863094E0,2.2457438E0],"split_indices":[2,9,26,9,9,57,9,9,84,83,9,73,57,56,73,0,0,0,0,0,0,0,0,0,0,0,0,0,0,0,0],"split_type":[0,0,0,0,0,0,0,0,0,0,0,0,0,0,0,0,0,0,0,0,0,0,0,0,0,0,0,0,0,0,0],"sum_hessian":[1.8739796E17,1.3698187E17,5.0416104E16,2.7554752E15,1.3422639E17,3.1001688E16,1.9414416E16,3.9821494E14,2.3572603E15,8.666357E15,1.2556004E17,1.9378493E16,1.1623195E16,5.7787545E15,1.3635662E16,1.5255494E14,2.4565998E14,9.9551175E14,1.3617485E15,2.9620884E15,5.704269E15,1.4321209E16,1.1123882E17,4.1534398E15,1.5225055E16,1.5875902E15,1.0035604E16,1.1881148E15,4.59064E15,3.8712833E15,9.764378E15],"tree_param":{"num_deleted":"0","num_feature":"85","num_nodes":"31","size_leaf_vector":"1"}},{"base_weights":[1.9326727E2,1.9124858E2,1.9370189E2,2.2561188E2,9.867494E1,1.1727254E2,1.9874988E2,1.9549553E2,2.2887659E2,1.1937648E2,9.096526E1,8.0737656E1,1.5135777E2,8.9786934E1,2.0543121E2,2.0036066E0,1.5503677E0,2.2191315E0,2.3641315E0,8.685105E-1,1.2438055E0,9.958391E-1,8.4994435E-1,7.387667E-1,8.5903364E-1,1.7775826E0,1.320646E0,1.0810012E0,8.0008954E-1,2.0518875E0,2.1686208E0],"categories":[],"categories_nodes":[],"categories_segments":[],"categories_sizes":[],"default_left":[0,0,0,0,0,0,0,0,1,0,0,1,0,0,0,0,0,0,0,0,0,0,0,0,0,0,0,0,0,0,0],"id":15,"left_children":[1,3,5,7,9,11,13,15,17,19,21,23,25,27,29,-1,-1,-1,-1,-1,-1,-1,-1,-1,-1,-1,-1,-1,-1,-1,-1],"loss_changes":[Infinity,8.949117E19,Infinity,2.01712E18,1.2154705E18,1.0081026E19,Infinity,3.9495337E17,9.7137014E17,3.363516E17,2.8555636E17,1.3847909E17,2.1331757E18,1.268014E18,Infinity,0E0,0E0,0E0,0E0,0E0,0E0,0E0,0E0,0E0,0E0,0E0,0E0,0E0,0E0,0E0,0E0],"parents":[2147483647,0,0,1,1,2,2,3,3,4,4,5,5,6,6,7,7,8,8,9,9,10,10,11,11,12,12,13,13,14,14],"right_children":[2,4,6,8,10,12,14,16,18,20,22,24,26,28,30,-1,-1,-1,-1,-1,-1,-1,-1,-1,-1,-1,-1,-1,-1,-1,-1],"split_conditions":[3.3E1,2.214E-1,6.6E1,1.1571E2,9E0,5.2E2,9.8E1,1.499E1,1.2749E2,1.3978347E0,1.7E1,1.7496556E0,2.539E-1,2.208E1,1.34E2,2.0036066E0,1.5503677E0,2.2191315E0,2.3641315E0,8.685105E-1,1.2438055E0,9.958391E-1,8.4994435E-1,7.387667E-1,8.5903364E-1,1.7775826E0,1.320646E0,1.0810012E0,8.0008954E-1,2.0518875E0,2.1686208E0],"split_indices":[0,33,0,20,0,57,0,71,22,6,0,10,33,83,0,0,0,0,0,0,0,0,0,0,0,0,0,0,0,0,0],"split_type":[0,0,0,0,0,0,0,0,0,0,0,0,0,0,0,0,0,0,0,0,0,0,0,0,0,0,0,0,0,0,0],"sum_hessian":[1.5879394E17,2.8131825E16,1.3066211E17,2.0516213E16,7.6156116E15,8.09526E15,1.2256686E17,2.006507E15,1.8509707E16,2.0665752E15,5.5490365E15,3.9072273E15,4.188033E15,7.0812903E15,1.1548556E17,1.7911254E15,2.153816E14,9.620662E15,8.889044E15,2.7555116E14,1.791024E15,2.2709742E15,3.2780624E15,1.6782343E15,2.2289929E15,1.7683072E15,2.4197258E15,2.4648565E15,4.6164343E15,1.1308687E17,2.3987E15],"tree_param":{"num_deleted":"0","num_feature":"85","num_nodes":"31","size_leaf_vector":"1"}},{"base_weights":[1.8650294E2,2.079406E2,1.4387918E2,9.6531525E1,2.0828712E2,9.74061E1,1.8618472E2,8.674683E1,1.2766402E2,1.0021453E2,2.0844911E2,9.142085E1,1.2711122E2,1.9660956E2,1.5903537E2,5.841938E-1,8.8342327E-1,1.2570786E0,1.2873242E0,1.0889404E0,7.196912E-1,5.497361E-1,2.084728E0,8.04815E-1,9.8518246E-1,1.362537E0,1.1174165E0,2.0608823E0,1.7433723E0,1.6628475E0,1.4097095E0],"categories":[],"categories_nodes":[],"categories_segments":[],"categories_sizes":[],"default_left":[0,0,1,0,0,0,0,0,0,0,0,0,0,0,0,0,0,0,0,0,0,0,0,0,0,0,0,0,0,0,0],"id":16,"left_children":[1,3,5,7,9,11,13,15,17,19,21,23,25,27,29,-1,-1,-1,-1,-1,-1,-1,-1,-1,-1,-1,-1,-1,-1,-1,-1],"loss_changes":[Infinity,Infinity,8.832326E19,8.437075E16,Infinity,3.8061046E18,6.6557573E18,9.52452E15,1.38469746E14,3.2670339E16,Infinity,1.3833615E18,5.0446033E17,3.5871875E18,8.544349E17,0E0,0E0,0E0,0E0,0E0,0E0,0E0,0E0,0E0,0E0,0E0,0E0,0E0,0E0,0E0,0E0],"parents":[2147483647,0,0,1,1,2,2,3,3,4,4,5,5,6,6,7,7,8,8,9,9,10,10,11,11,12,12,13,13,14,14],"right_children":[2,4,6,8,10,12,14,16,18,20,22,24,26,28,30,-1,-1,-1,-1,-1,-1,-1,-1,-1,-1,-1,-1,-1,-1,-1,-1],"split_conditions":[1.9906701E-1,8.856E1,9.996E1,1.418E1,9.489E1,5.28E2,1.9971909E-1,8.356E1,8.78E1,1.104E1,1.0707E2,4.53E2,5.45E2,1.958E1,2.0023423E-1,5.841938E-1,8.8342327E-1,1.2570786E0,1.2873242E0,1.0889404E0,7.196912E-1,5.497361E-1,2.084728E0,8.04815E-1,9.8518246E-1,1.362537E0,1.1174165E0,2.0608823E0,1.7433723E0,1.6628475E0,1.4097095E0],"split_indices":[17,20,26,71,20,57,17,20,20,71,20,57,57,71,17,0,0,0,0,0,0,0,0,0,0,0,0,0,0,0,0],"split_type":[0,0,0,0,0,0,0,0,0,0,0,0,0,0,0,0,0,0,0,0,0,0,0,0,0,0,0,0,0,0,0],"sum_hessian":[1.3424422E17,8.932045E16,4.492377E16,2.7696905E14,8.9043485E16,2.1407457E16,2.3516312E16,2.1073633E14,6.6232724E13,1.3326345E14,8.891022E16,1.7817445E16,3.5900112E15,1.699179E16,6.524521E15,1.1236498E13,1.9949984E14,2.3396274E13,4.2836448E13,1.0193878E14,3.1324664E13,1.3727561E13,8.8896494E16,7.011104E15,1.0806342E16,2.2510121E15,1.3389991E15,1.1919203E16,5.072587E15,4.656025E15,1.8684956E15],"tree_param":{"num_deleted":"0","num_feature":"85","num_nodes":"31","size_leaf_vector":"1"}},{"base_weights":[1.7963878E2,1.7899046E2,1.8669005E2,1.7888535E2,2.3566357E2,1.6285916E2,1.9619553E2,1.7954233E2,1.1544488E2,2.3666227E0,2.346298E0,1.2850421E2,1.6887434E2,2.263707E2,1.9010979E2,1.7954353E0,4.671863E-2,1.207425E0,5.8580077E-1,9.846838E-1,1.3728954E0,1.7003684E0,1.3793515E0,2.1149368E0,2.4315546E0,2.0689156E0,1.7998518E0],"categories":[],"categories_nodes":[],"categories_segments":[],"categories_sizes":[],"default_left":[0,0,1,0,0,1,0,0,0,0,0,1,0,0,0,0,0,0,0,0,0,0,0,0,0,0,0],"id":17,"left_children":[1,3,5,7,9,11,13,15,17,-1,-1,19,21,23,25,-1,-1,-1,-1,-1,-1,-1,-1,-1,-1,-1,-1],"loss_changes":[Infinity,Infinity,2.1682017E18,Infinity,2.0011112E14,5.639967E17,1.2565219E18,Infinity,3.208496E17,0E0,0E0,1.0730739E17,8.3536495E16,2.8675703E17,9.674823E17,0E0,0E0,0E0,0E0,0E0,0E0,0E0,0E0,0E0,0E0,0E0,0E0],"parents":[2147483647,0,0,1,1,2,2,3,3,4,4,5,5,6,6,7,7,8,8,11,11,12,12,13,13,14,14],"right_children":[2,4,6,8,10,12,14,16,18,-1,-1,20,22,24,26,-1,-1,-1,-1,-1,-1,-1,-1,-1,-1,-1,-1],"split_conditions":[1.3E2,1.8275E2,1.3784487E0,2.5069595E1,2.0240322E1,-8.8E-1,1.08096664E2,1.8248666E2,2.291E-1,2.3666227E0,2.346298E0,-3.8E1,2.02E0,1.6215798E0,2.4387339E1,1.7954353E0,4.671863E-2,1.207425E0,5.8580077E-1,9.846838E-1,1.3728954E0,1.7003684E0,1.3793515E0,2.1149368E0,2.4315546E0,2.0689156E0,1.7998518E0],"split_indices":[0,1,12,4,4,82,24,24,44,0,0,56,82,12,61,0,0,0,0,0,0,0,0,0,0,0,0],"split_type":[0,0,0,0,0,0,0,0,0,0,0,0,0,0,0,0,0,0,0,0,0,0,0,0,0,0,0],"sum_hessian":[1.1367519E17,1.0410356E17,9.571635E15,1.03910815E17,1.927387E14,2.7292402E15,6.8423956E15,1.0284575E17,1.0650665E15,9.803159E13,9.470711E13,4.06659E14,2.3225811E15,1.1483704E15,5.6940255E15,1.02845045E17,7.088218E11,9.742991E14,9.076739E13,9.202803E13,3.14631E14,2.2384732E15,8.4107975E13,6.0878195E14,5.3958842E14,2.1426058E15,3.5514193E15],"tree_param":{"num_deleted":"0","num_feature":"85","num_nodes":"27","size_leaf_vector":"1"}},{"base_weights":[1.7559175E2,1.8955006E2,8.9679794E1,1.663738E2,2.0044385E2,8.60026E1,1.2100265E2,1.4975697E2,1.7438315E2,1.9380626E2,2.1311298E2,7.135321E1,9.003318E1,1.3713919E2,9.844882E1,1.5683649E0,1.3780327E0,2.0803378E0,1.7187903E0,1.838755E0,1.973451E0,2.0541856E0,2.1479106E0,7.2981834E-1,5.595214E-1,8.724497E-1,1.0748677E0,1.2067004E0,1.4426658E0,8.7305766E-1,1.1591331E0],"categories":[],"categories_nodes":[],"categories_segments":[],"categories_sizes":[],"default_left":[0,0,0,0,0,1,0,0,0,0,0,0,0,0,1,0,0,0,0,0,0,0,0,0,0,0,0,0,0,0,0],"id":18,"left_children":[1,3,5,7,9,11,13,15,17,19,21,23,25,27,29,-1,-1,-1,-1,-1,-1,-1,-1,-1,-1,-1,-1,-1,-1,-1,-1],"loss_changes":[1.1391968E20,2.0632397E19,1.52928E18,3.477553E18,4.6747364E18,7.016028E17,5.076775E17,7.1918616E17,1.4856953E18,1.2819778E18,2.4685355E17,6.4307137E16,4.5347378E17,9.54519E16,1.1322056E17,0E0,0E0,0E0,0E0,0E0,0E0,0E0,0E0,0E0,0E0,0E0,0E0,0E0,0E0,0E0,0E0],"parents":[2147483647,0,0,1,1,2,2,3,3,4,4,5,5,6,6,7,7,8,8,9,9,10,10,11,11,12,12,13,13,14,14],"right_children":[2,4,6,8,10,12,14,16,18,20,22,24,26,28,30,-1,-1,-1,-1,-1,-1,-1,-1,-1,-1,-1,-1,-1,-1,-1,-1],"split_conditions":[2.4899334E-1,1.7765565E0,3.75E2,9.999157E-1,3.143E1,-2.5E-1,1.1626667E1,3.7489778E-1,4.73E2,2.2393486E0,3.183E1,1.805E1,1.4046667E1,3.79E2,1.1994666E2,1.5683649E0,1.3780327E0,2.0803378E0,1.7187903E0,1.838755E0,1.973451E0,2.0541856E0,2.1479106E0,7.2981834E-1,5.595214E-1,8.724497E-1,1.0748677E0,1.2067004E0,1.4426658E0,8.7305766E-1,1.1591331E0],"split_indices":[39,14,3,14,73,81,76,18,3,13,73,73,76,51,24,0,0,0,0,0,0,0,0,0,0,0,0,0,0,0,0],"split_type":[0,0,0,0,0,0,0,0,0,0,0,0,0,0,0,0,0,0,0,0,0,0,0,0,0,0,0,0,0,0,0],"sum_hessian":[9.499754E16,8.1720265E16,1.3277279E16,2.6129767E16,5.5590496E16,1.1882334E16,1.3949451E15,8.4983675E15,1.76314E16,3.6478673E16,1.911182E16,2.5638555E15,9.318478E15,8.13157E14,5.81788E14,5.3373505E15,3.161017E15,1.2211682E15,1.6410231E16,9.583987E15,2.6894688E16,3.4218676E15,1.5689954E16,2.3186628E15,2.4519262E14,8.034902E15,1.2835765E15,2.456161E14,5.6754094E14,3.5517326E14,2.2661476E14],"tree_param":{"num_deleted":"0","num_feature":"85","num_nodes":"31","size_leaf_vector":"1"}},{"base_weights":[1.6901111E2,8.7263626E1,1.8227043E2,8.246361E1,1.1270179E2,1.5448592E2,1.9064926E2,7.800614E1,1.229966E2,1.3347409E2,1.0581844E2,1.3780176E2,1.6044595E2,1.8405714E2,2.0428531E2,8.302567E-1,6.669306E-1,1.3181016E0,7.9964364E-1,3.5605568E-1,1.3676165E0,1.0310987E0,1.1928257E0,1.4350024E0,1.2751404E0,1.5611274E0,1.7461904E0,1.7422479E0,1.900097E0,1.9753544E0,2.0660942E0],"categories":[],"categories_nodes":[],"categories_segments":[],"categories_sizes":[],"default_left":[1,0,0,0,0,0,0,0,0,0,1,0,0,0,0,0,0,0,0,0,0,0,0,0,0,0,0,0,0,0,0],"id":19,"left_children":[1,3,5,7,9,11,13,15,17,19,21,23,25,27,29,-1,-1,-1,-1,-1,-1,-1,-1,-1,-1,-1,-1,-1,-1,-1,-1],"loss_changes":[8.724556E19,1.371654E18,1.612345E19,1.7074228E18,2.5496795E17,1.5956465E18,4.7831043E18,4.8347285E17,3.5510597E17,1.4280182E17,4.8844705E16,2.4759243E17,7.260999E17,2.0993811E18,2.7204556E17,0E0,0E0,0E0,0E0,0E0,0E0,0E0,0E0,0E0,0E0,0E0,0E0,0E0,0E0,0E0,0E0],"parents":[2147483647,0,0,1,1,2,2,3,3,4,4,5,5,6,6,7,7,8,8,9,9,10,10,11,11,12,12,13,13,14,14],"right_children":[2,4,6,8,10,12,14,16,18,20,22,24,26,28,30,-1,-1,-1,-1,-1,-1,-1,-1,-1,-1,-1,-1,-1,-1,-1,-1],"split_conditions":[1.00492E2,1.05E2,1.5904981E0,3.75E2,2.98E2,7.7494496E-1,3.175E1,1.217E1,1.177E1,1.09E2,4.1199484E0,2.4987368E1,2.788E1,2.2393486E0,3.183E1,8.302567E-1,6.669306E-1,1.3181016E0,7.9964364E-1,3.5605568E-1,1.3676165E0,1.0310987E0,1.1928257E0,1.4350024E0,1.2751404E0,1.5611274E0,1.7461904E0,1.7422479E0,1.900097E0,1.9753544E0,2.0660942E0],"split_indices":[26,0,13,3,3,14,72,73,72,0,14,64,72,13,73,0,0,0,0,0,0,0,0,0,0,0,0,0,0,0,0],"split_type":[0,0,0,0,0,0,0,0,0,0,0,0,0,0,0,0,0,0,0,0,0,0,0,0,0,0,0,0,0,0,0],"sum_hessian":[8.049097E16,1.1233465E16,6.9257503E16,9.450263E15,1.7832024E15,1.6046552E16,5.321095E16,8.5139695E15,9.3629314E14,4.4382994E14,1.3393725E15,4.2235066E15,1.1823045E16,3.5870143E16,1.734081E16,5.8973546E15,2.6166151E15,7.7712715E14,1.5916604E14,1.4424403E13,4.2940553E14,1.11505746E15,2.2431504E14,2.7179852E15,1.5055215E15,9.054709E15,2.768336E15,1.3526772E16,2.234337E16,4.4415014E15,1.2899309E16],"tree_param":{"num_deleted":"0","num_feature":"85","num_nodes":"31","size_leaf_vector":"1"}},{"base_weights":[1.6262949E2,8.425913E1,1.7522035E2,7.2992966E1,9.97041E1,1.4860832E2,1.8326215E2,6.52107E1,8.116198E1,1.3097327E2,9.642397E1,1.334561E2,1.54585E2,1.6526654E2,1.8622383E2,5.725709E-1,6.7520416E-1,1.0227715E0,7.573804E-1,1.2613525E0,1.3618569E0,8.20242E-1,1.1006278E0,1.386855E0,1.22947E0,1.6013212E0,1.4713855E0,1.744174E0,1.5742145E0,1.823548E0,1.9472255E0],"categories":[],"categories_nodes":[],"categories_segments":[],"categories_sizes":[],"default_left":[1,0,0,0,0,0,0,1,0,0,0,0,0,0,0,0,0,0,0,0,0,0,0,0,0,0,0,0,0,0,0],"id":20,"left_children":[1,3,5,7,9,11,13,15,17,19,21,23,25,27,29,-1,-1,-1,-1,-1,-1,-1,-1,-1,-1,-1,-1,-1,-1,-1,-1],"loss_changes":[6.731432E19,1.643097E18,1.2578413E19,3.4711362E17,4.0849496E17,1.2352178E18,2.4054852E18,5.1366984E16,3.050826E17,9.535515E15,7.0793595E17,2.1202982E17,4.0402214E17,4.5788942E17,1.2745187E18,0E0,0E0,0E0,0E0,0E0,0E0,0E0,0E0,0E0,0E0,0E0,0E0,0E0,0E0,0E0,0E0],"parents":[2147483647,0,0,1,1,2,2,3,3,4,4,5,5,6,6,7,7,8,8,9,9,10,10,11,11,12,12,13,13,14,14],"right_children":[2,4,6,8,10,12,14,16,18,20,22,24,26,28,30,-1,-1,-1,-1,-1,-1,-1,-1,-1,-1,-1,-1,-1,-1,-1,-1],"split_conditions":[4.0386667E2,4.94E2,1.6522831E0,4.53E2,8.63E1,9.500584E-1,-1.19E-2,1.6477036E0,4.54E2,2.936E-1,5.28E2,1.9990009E-1,4.07E0,5.23E2,1.6609E2,5.725709E-1,6.7520416E-1,1.0227715E0,7.573804E-1,1.2613525E0,1.3618569E0,8.20242E-1,1.1006278E0,1.386855E0,1.22947E0,1.6013212E0,1.4713855E0,1.744174E0,1.5742145E0,1.823548E0,1.9472255E0],"split_indices":[52,57,12,57,23,12,43,12,57,2,57,17,29,57,24,0,0,0,0,0,0,0,0,0,0,0,0,0,0,0,0],"split_type":[0,0,0,0,0,0,0,0,0,0,0,0,0,0,0,0,0,0,0,0,0,0,0,0,0,0,0,0,0,0,0],"sum_hessian":[6.8218396E16,9.442791E15,5.8775605E16,5.460031E15,3.9827602E15,1.3639523E16,4.513608E16,2.796206E15,2.6638246E15,3.781253E14,3.604635E15,3.8581772E15,9.781347E15,6.378627E15,3.8757454E16,6.292737E14,2.1669323E15,5.444196E14,2.119405E15,1.9610648E14,1.8201883E14,1.7534031E15,1.8512318E15,2.5762266E15,1.2819507E15,5.605564E15,4.1757825E15,2.9442846E15,3.4343428E15,2.6632888E16,1.2124564E16],"tree_param":{"num_deleted":"0","num_feature":"85","num_nodes":"31","size_leaf_vector":"1"}},{"base_weights":[1.5650876E2,7.9965904E1,1.6808488E2,7.561844E1,1.0584068E2,1.425765E2,1.7606488E2,7.0112465E1,9.336372E1,1.23228355E2,9.83165E1,1.2431663E2,1.4811383E2,1.7004657E2,1.8942897E2,6.1254066E-1,7.541774E-1,1.003755E0,6.4406097E-1,3.165609E-1,1.2574784E0,1.0068028E0,7.4052495E-1,1.0021802E0,1.2716427E0,1.3926947E0,1.5483729E0,1.6573815E0,1.7986467E0,1.8817059E0,1.9752983E0],"categories":[],"categories_nodes":[],"categories_segments":[],"categories_sizes":[],"default_left":[1,0,1,0,0,1,0,0,0,0,0,1,0,0,0,0,0,0,0,0,0,0,0,0,0,0,0,0,0,0,0],"id":21,"left_children":[1,3,5,7,9,11,13,15,17,19,21,23,25,27,29,-1,-1,-1,-1,-1,-1,-1,-1,-1,-1,-1,-1,-1,-1,-1,-1],"loss_changes":[5.1224505E19,8.5431614E17,1.0221905E19,6.35289E17,1.4292662E17,1.2099202E18,3.0763808E18,2.3321301E17,3.1263074E17,7.612799E16,4.3734724E16,1.9107313E17,5.459911E17,1.11569644E18,1.21069424E17,0E0,0E0,0E0,0E0,0E0,0E0,0E0,0E0,0E0,0E0,0E0,0E0,0E0,0E0,0E0,0E0],"parents":[2147483647,0,0,1,1,2,2,3,3,4,4,5,5,6,6,7,7,8,8,9,9,10,10,11,11,12,12,13,13,14,14],"right_children":[2,4,6,8,10,12,14,16,18,20,22,24,26,28,30,-1,-1,-1,-1,-1,-1,-1,-1,-1,-1,-1,-1,-1,-1,-1,-1],"split_conditions":[3.97E2,1.05E2,1.3284065E0,3.52E2,8.63E1,5.2672154E-1,3.1510666E1,2.4849627E1,1.2076E1,1.09E2,1.6971333E1,1.9399334E1,1.22E2,2.5129452E1,1.27E2,6.1254066E-1,7.541774E-1,1.003755E0,6.4406097E-1,3.165609E-1,1.2574784E0,1.0068028E0,7.4052495E-1,1.0021802E0,1.2716427E0,1.3926947E0,1.5483729E0,1.6573815E0,1.7986467E0,1.8817059E0,1.9752983E0],"split_indices":[45,0,10,3,1,10,78,70,78,0,78,78,0,70,0,0,0,0,0,0,0,0,0,0,0,0,0,0,0,0,0],"split_type":[0,0,0,0,0,0,0,0,0,0,0,0,0,0,0,0,0,0,0,0,0,0,0,0,0,0,0,0,0,0,0],"sum_hessian":[5.7810853E16,7.594569E15,5.0216285E16,6.502091E15,1.0924778E15,1.1966113E16,3.825017E16,4.962374E15,1.5397168E15,3.2996368E14,7.625141E14,2.7843712E15,9.181741E15,2.6373352E16,1.187682E16,1.8587533E15,3.103621E15,1.2395686E15,3.0014822E14,8.835392E12,3.211283E14,6.9482464E14,6.768951E13,2.9424858E14,2.4901227E15,3.96543E15,5.2163113E15,1.832979E16,8.0435616E15,1.0279948E16,1.5968713E15],"tree_param":{"num_deleted":"0","num_feature":"85","num_nodes":"31","size_leaf_vector":"1"}},{"base_weights":[1.5062257E2,1.6201587E2,7.8639755E1,1.3750787E2,1.6940881E2,7.544577E1,1.0557699E2,1.2408152E2,1.4327834E2,1.6269238E2,1.8004077E2,8.60373E1,7.302878E1,1.19145004E2,8.671417E1,1.1267556E0,1.2795067E0,1.3900204E0,1.5602186E0,1.5404081E0,1.6846458E0,1.7375038E0,1.8350182E0,7.6739144E-1,1.1451778E0,8.4610754E-1,7.0311904E-1,7.898543E-1,1.2115481E0,6.034622E-1,9.1990066E-1],"categories":[],"categories_nodes":[],"categories_segments":[],"categories_sizes":[],"default_left":[0,0,1,0,0,0,0,0,0,0,0,0,0,0,0,0,0,0,0,0,0,0,0,0,0,0,0,0,0,0,0],"id":22,"left_children":[1,3,5,7,9,11,13,15,17,19,21,23,25,27,29,-1,-1,-1,-1,-1,-1,-1,-1,-1,-1,-1,-1,-1,-1,-1,-1],"loss_changes":[4.017767E19,7.663297E18,5.7596817E17,7.594195E17,2.320339E18,1.5320815E17,1.8161458E17,1.3003264E17,3.7358766E17,9.944863E17,2.7387515E17,2.944701E17,1.533313E17,3.3313553E16,4.1300818E16,0E0,0E0,0E0,0E0,0E0,0E0,0E0,0E0,0E0,0E0,0E0,0E0,0E0,0E0,0E0,0E0],"parents":[2147483647,0,0,1,1,2,2,3,3,4,4,5,5,6,6,7,7,8,8,9,9,10,10,11,11,12,12,13,13,14,14],"right_children":[2,4,6,8,10,12,14,16,18,20,22,24,26,28,30,-1,-1,-1,-1,-1,-1,-1,-1,-1,-1,-1,-1,-1,-1,-1,-1],"split_conditions":[2.4899334E-1,1.6528589E0,3.75E2,9.750374E-1,3.127875E1,2.96E2,1.1573334E1,5.558123E-1,2.8233334E1,2.2949882E0,3.1854E1,1.4046667E1,0E0,1.104E1,2.539E-1,1.1267556E0,1.2795067E0,1.3900204E0,1.5602186E0,1.5404081E0,1.6846458E0,1.7375038E0,1.8350182E0,7.6739144E-1,1.1451778E0,8.4610754E-1,7.0311904E-1,7.898543E-1,1.2115481E0,6.034622E-1,9.1990066E-1],"split_indices":[39,7,45,7,77,45,78,8,76,8,78,76,43,78,35,0,0,0,0,0,0,0,0,0,0,0,0,0,0,0,0],"split_type":[0,0,0,0,0,0,0,0,0,0,0,0,0,0,0,0,0,0,0,0,0,0,0,0,0,0,0,0,0,0,0],"sum_hessian":[4.8989784E16,4.229536E16,6.694421E15,9.801825E15,3.2493536E16,5.984797E15,7.096242E14,2.9463782E15,6.855447E15,1.991366E16,1.2579875E16,1.1119795E15,4.872817E15,4.1274025E14,2.9688398E14,7.463111E14,2.2000669E15,5.1329874E15,1.7224597E15,7.969185E15,1.1944476E16,4.4649256E15,8.11495E15,8.382968E14,2.736827E14,9.258673E14,3.9469499E15,1.9671355E13,3.930689E14,4.9498705E13,2.4738528E14],"tree_param":{"num_deleted":"0","num_feature":"85","num_nodes":"31","size_leaf_vector":"1"}},{"base_weights":[1.4501488E2,1.5578632E2,7.6358E1,1.315479E2,1.6267917E2,9.6445656E1,6.6462715E1,1.1801542E2,1.36608E2,1.6924171E2,1.5579858E2,9.824826E1,5.9239388E1,7.361844E1,5.800729E1,1.2203652E0,1.0844629E0,1.3870294E0,1.165376E0,1.7102282E0,1.5877454E0,1.5061561E0,1.6472138E0,9.5049447E-1,1.152726E0,6.2271273E-1,3.3626938E-1,8.2190377E-1,6.15098E-1,5.2977014E-1,6.1959803E-1],"categories":[],"categories_nodes":[],"categories_segments":[],"categories_sizes":[],"default_left":[0,0,0,0,0,0,0,0,0,0,0,1,0,0,1,0,0,0,0,0,0,0,0,0,0,0,0,0,0,0,0],"id":23,"left_children":[1,3,5,7,9,11,13,15,17,19,21,23,25,27,29,-1,-1,-1,-1,-1,-1,-1,-1,-1,-1,-1,-1,-1,-1,-1,-1],"loss_changes":[3.068992E19,5.993095E18,1.1186475E18,5.4385364E17,1.2610783E18,1.2456807E17,2.2812667E17,8.3175856E16,2.4306244E17,2.6648643E17,6.305743E17,9.647225E16,6.664827E15,2.1196605E17,3.4361937E16,0E0,0E0,0E0,0E0,0E0,0E0,0E0,0E0,0E0,0E0,0E0,0E0,0E0,0E0,0E0,0E0],"parents":[2147483647,0,0,1,1,2,2,3,3,4,4,5,5,6,6,7,7,8,8,9,9,10,10,11,11,12,12,13,13,14,14],"right_children":[2,4,6,8,10,12,14,16,18,20,22,24,26,28,30,-1,-1,-1,-1,-1,-1,-1,-1,-1,-1,-1,-1,-1,-1,-1,-1],"split_conditions":[2.4899334E-1,1.4523171E0,2.233E-1,7.502231E-1,1.485E-1,2.5247663E1,2.346E-1,2.5004656E1,2.4772863E1,2.219E-1,2.5129452E1,2.874E-1,2.65575E-1,2.4901821E1,1E0,1.2203652E0,1.0844629E0,1.3870294E0,1.165376E0,1.7102282E0,1.5877454E0,1.5061561E0,1.6472138E0,9.5049447E-1,1.152726E0,6.2271273E-1,3.3626938E-1,8.2190377E-1,6.15098E-1,5.2977014E-1,6.1959803E-1],"split_indices":[39,9,44,9,35,70,44,64,70,44,70,32,38,70,84,0,0,0,0,0,0,0,0,0,0,0,0,0,0,0,0],"split_type":[0,0,0,0,0,0,0,0,0,0,0,0,0,0,0,0,0,0,0,0,0,0,0,0,0,0,0,0,0,0,0],"sum_hessian":[4.149899E16,3.5871228E16,5.6277633E15,7.942334E15,2.7928892E16,1.8573343E15,3.770429E15,2.161563E15,5.780771E15,1.4294802E16,1.363409E16,1.7715069E15,8.582734E13,2.042168E15,1.7282612E15,1.521995E15,6.39568E14,5.2344066E15,5.463642E14,1.221609E16,2.0787134E15,8.624437E15,5.009653E15,1.4912976E15,2.8020939E14,7.674286E13,9.084474E12,1.195705E15,8.46463E14,7.604517E14,9.678095E14],"tree_param":{"num_deleted":"0","num_feature":"85","num_nodes":"31","size_leaf_vector":"1"}},{"base_weights":[1.3955461E2,7.399632E1,1.4984694E2,9.9264366E1,7.076602E1,1.2721113E2,1.5668692E2,1.1061355E2,8.076673E1,5.2805477E1,7.317699E1,1.1530665E2,1.3277312E2,1.5143202E2,1.6824406E2,7.328601E-1,1.1221592E0,8.55469E-1,5.5066365E-1,4.4309986E-1,5.6153417E-1,1.0585542E0,7.013844E-1,1.1946602E0,1.0564675E0,1.4028211E0,1.2621552E0,1.4751941E0,1.6022135E0,1.6230841E0,1.696741E0],"categories":[],"categories_nodes":[],"categories_segments":[],"categories_sizes":[],"default_left":[1,0,0,0,0,0,0,0,1,0,0,0,0,0,0,0,0,0,0,0,0,0,0,0,0,0,0,0,0,0,0],"id":24,"left_children":[1,3,5,7,9,11,13,15,17,19,21,23,25,27,29,-1,-1,-1,-1,-1,-1,-1,-1,-1,-1,-1,-1,-1,-1,-1,-1],"loss_changes":[2.3729889E19,3.895152E17,4.7062616E18,1.1355756E17,1.8322042E17,4.6703736E17,1.4176487E18,2.0051244E16,2.5268839E16,1.4242936E16,3.7041447E17,9.0247914E16,2.3672925E17,5.518317E17,6.195968E16,0E0,0E0,0E0,0E0,0E0,0E0,0E0,0E0,0E0,0E0,0E0,0E0,0E0,0E0,0E0,0E0],"parents":[2147483647,0,0,1,1,2,2,3,3,4,4,5,5,6,6,7,7,8,8,9,9,10,10,11,11,12,12,13,13,14,14],"right_children":[2,4,6,8,10,12,14,16,18,20,22,24,26,28,30,-1,-1,-1,-1,-1,-1,-1,-1,-1,-1,-1,-1,-1,-1,-1,-1],"split_conditions":[1.00492E2,2.588E-1,1.6779939E0,1.1573334E1,2.453585E1,1.0250701E0,3.1510666E1,1.112E1,3.89E2,2.1729763E0,2.4536777E1,1.9989201E-1,6.69E0,2.5129452E1,3.1854E1,7.328601E-1,1.1221592E0,8.55469E-1,5.5066365E-1,4.4309986E-1,5.6153417E-1,1.0585542E0,7.013844E-1,1.1946602E0,1.0564675E0,1.4028211E0,1.2621552E0,1.4751941E0,1.6022135E0,1.6230841E0,1.696741E0],"split_indices":[26,32,11,78,70,11,78,73,48,11,70,17,30,70,78,0,0,0,0,0,0,0,0,0,0,0,0,0,0,0,0],"split_type":[0,0,0,0,0,0,0,0,0,0,0,0,0,0,0,0,0,0,0,0,0,0,0,0,0,0,0,0,0,0,0],"sum_hessian":[3.5168674E16,4.7721097E15,3.0396564E16,5.4092174E14,4.231188E15,7.053645E15,2.3342917E16,3.3523743E14,2.0568429E14,5.007609E14,3.730427E15,2.2461513E15,4.807494E15,1.6046685E16,7.296233E15,1.3798562E13,3.2143888E14,1.7342747E14,3.2256817E13,1.415568E14,3.592041E14,3.1735745E14,3.4130698E15,1.5700972E15,6.760541E14,2.241172E15,2.566322E15,1.1103774E16,4.9429114E15,1.4165492E15,5.8796835E15],"tree_param":{"num_deleted":"0","num_feature":"85","num_nodes":"31","size_leaf_vector":"1"}},{"base_weights":[1.3433804E2,7.175689E1,1.4408807E2,6.8678406E1,9.584559E1,1.22339645E2,1.5064818E2,5.083928E1,7.1090256E1,1.0568456E2,7.772689E1,1.18144806E2,1.3721078E2,1.4527283E2,1.6086617E2,4.213489E-1,5.39232E-1,1.0179725E0,6.820889E-1,9.448911E-1,1.1099468E0,6.620906E-1,9.120958E-1,1.0737522E0,1.2204483E0,1.2612351E0,1.4001466E0,1.3716543E0,1.5058224E0,1.5633066E0,1.6220428E0],"categories":[],"categories_nodes":[],"categories_segments":[],"categories_sizes":[],"default_left":[1,1,0,0,0,0,0,1,0,0,0,0,0,0,0,0,0,0,0,0,0,0,0,0,0,0,0,0,0,0,0],"id":25,"left_children":[1,3,5,7,9,11,13,15,17,19,21,23,25,27,29,-1,-1,-1,-1,-1,-1,-1,-1,-1,-1,-1,-1,-1,-1,-1,-1],"loss_changes":[1.8180398E19,2.978401E17,3.6779983E18,1.5322684E17,8.113489E16,3.7266407E17,1.0878304E18,1.1385443E16,2.7756731E17,1.7534737E16,2.487274E16,1.9570867E17,4.085785E16,5.586047E17,4.144719E16,0E0,0E0,0E0,0E0,0E0,0E0,0E0,0E0,0E0,0E0,0E0,0E0,0E0,0E0,0E0,0E0],"parents":[2147483647,0,0,1,1,2,2,3,3,4,4,5,5,6,6,7,7,8,8,9,9,10,10,11,11,12,12,13,13,14,14],"right_children":[2,4,6,8,10,12,14,16,18,20,22,24,26,28,30,-1,-1,-1,-1,-1,-1,-1,-1,-1,-1,-1,-1,-1,-1,-1,-1],"split_conditions":[1.00492E2,3.7466666E2,1.6522831E0,2.453585E1,1.1626667E1,2.78E1,3.183E1,2.072553E0,2.4536777E1,9.738E1,5.77E2,8.500102E-1,2.3468021E1,2.3515615E0,3.223E1,4.213489E-1,5.39232E-1,1.0179725E0,6.820889E-1,9.448911E-1,1.1099468E0,6.620906E-1,9.120958E-1,1.0737522E0,1.2204483E0,1.2612351E0,1.4001466E0,1.3716543E0,1.5058224E0,1.5633066E0,1.6220428E0],"split_indices":[26,50,12,70,76,76,76,12,70,26,49,12,70,12,71,0,0,0,0,0,0,0,0,0,0,0,0,0,0,0,0],"split_type":[0,0,0,0,0,0,0,0,0,0,0,0,0,0,0,0,0,0,0,0,0,0,0,0,0,0,0,0,0,0,0],"sum_hessian":[2.9795721E16,4.0163764E15,2.5779345E16,3.5612548E15,4.5512158E14,5.973996E15,1.9805348E16,4.241391E14,3.1371155E15,2.9495332E14,1.6016824E14,4.6596165E15,1.3143798E15,1.2978028E16,6.827321E15,1.1095846E14,3.1318063E14,2.691168E14,2.8679988E15,9.489141E13,2.0006193E14,8.6378184E13,7.379006E13,1.23879E15,3.4208263E15,2.6530323E14,1.04907657E15,5.135778E15,7.84225E15,1.5553863E15,5.2719344E15],"tree_param":{"num_deleted":"0","num_feature":"85","num_nodes":"31","size_leaf_vector":"1"}},{"base_weights":[1.2930681E2,6.960517E1,1.3853398E2,8.7190285E1,6.029384E1,1.16957794E2,1.44668E2,2.2300375E1,8.826228E1,7.430771E1,5.4828335E1,1.1324673E2,1.3162697E2,1.3986554E2,1.5541595E2,3.736694E-1,-6.071601E-1,7.6611143E-1,9.2240757E-1,6.987235E-1,8.563189E-1,5.244963E-1,6.712886E-1,1.1845762E0,1.0243067E0,1.4005814E0,1.2873287E0,1.4283205E0,1.2860414E0,1.5640075E0,1.4366038E0],"categories":[],"categories_nodes":[],"categories_segments":[],"categories_sizes":[],"default_left":[1,0,0,1,0,0,0,0,1,0,0,0,0,0,0,0,0,0,0,0,0,0,0,0,0,0,0,0,0,0,0],"id":26,"left_children":[1,3,5,7,9,11,13,15,17,19,21,23,25,27,29,-1,-1,-1,-1,-1,-1,-1,-1,-1,-1,-1,-1,-1,-1,-1,-1],"loss_changes":[1.3907116E19,5.533567E17,2.8939498E18,8.138365E16,1.6923353E17,2.6350016E17,8.787649E17,2.3781917E16,5.3350503E16,3.113762E16,4.650989E16,2.1772969E17,2.3846208E16,3.9313258E17,6.0868964E16,0E0,0E0,0E0,0E0,0E0,0E0,0E0,0E0,0E0,0E0,0E0,0E0,0E0,0E0,0E0,0E0],"parents":[2147483647,0,0,1,1,2,2,3,3,4,4,5,5,6,6,7,7,8,8,9,9,10,10,11,11,12,12,13,13,14,14],"right_children":[2,4,6,8,10,12,14,16,18,20,22,24,26,28,30,-1,-1,-1,-1,-1,-1,-1,-1,-1,-1,-1,-1,-1,-1,-1,-1],"split_conditions":[1.00492E2,2.233E-1,1.4523171E0,1.032E1,9.174E0,2.78E1,3.1510666E1,9.428E1,-4E-1,8.8496666E1,4.97E2,5.98E2,1.61E-1,6.15E2,2.219E-1,3.736694E-1,-6.071601E-1,7.6611143E-1,9.2240757E-1,6.987235E-1,8.563189E-1,5.244963E-1,6.712886E-1,1.1845762E0,1.0243067E0,1.4005814E0,1.2873287E0,1.4283205E0,1.2860414E0,1.5640075E0,1.4366038E0],"split_indices":[26,44,9,72,78,76,78,1,82,24,57,57,44,57,44,0,0,0,0,0,0,0,0,0,0,0,0,0,0,0,0],"split_type":[0,0,0,0,0,0,0,0,0,0,0,0,0,0,0,0,0,0,0,0,0,0,0,0,0,0,0,0,0,0,0],"sum_hessian":[2.5245335E16,3.3794738E15,2.186586E16,1.169947E15,2.2095269E15,4.8402966E15,1.7025565E16,1.9013797E13,1.1509331E15,6.1994665E14,1.5895803E15,3.8630152E15,9.772814E14,1.1767529E16,5.258037E15,1.6093079E13,2.9207172E12,2.9296667E14,8.579664E14,4.4546918E14,1.7447748E14,1.3319955E15,2.5758467E14,2.607022E15,1.2559931E15,2.4973661E14,7.2754484E14,9.313993E15,2.4535355E15,4.8516036E15,4.064333E14],"tree_param":{"num_deleted":"0","num_feature":"85","num_nodes":"31","size_leaf_vector":"1"}},{"base_weights":[1.24403435E2,1.3328944E2,6.791716E1,1.2699042E2,1.4785129E2,9.012101E1,6.4475655E1,1.3192914E2,1.15287735E2,1.444725E2,1.5236594E2,9.929846E1,7.631524E1,6.541506E1,4.0593536E1,1.335689E0,1.0466956E0,1.121509E0,1.2741039E0,1.415074E0,1.4811808E0,1.504843E0,1.575925E0,6.6903573E-1,1.0041301E0,-4.0536284E-1,7.7434295E-1,7.403612E-1,6.3554144E-1,-5.69657E-1,4.3751118E-1],"categories":[],"categories_nodes":[],"categories_segments":[],"categories_sizes":[],"default_left":[0,0,0,0,0,0,0,0,0,0,0,0,1,0,1,0,0,0,0,0,0,0,0,0,0,0,0,0,0,0,0],"id":27,"left_children":[1,3,5,7,9,11,13,15,17,19,21,23,25,27,29,-1,-1,-1,-1,-1,-1,-1,-1,-1,-1,-1,-1,-1,-1,-1,-1],"loss_changes":[1.0741331E19,1.6960627E18,2.2227947E17,7.4599665E17,8.516377E16,4.945878E16,5.6503903E16,4.057286E17,1.456633E17,3.4520267E16,2.3507559E16,8.4662395E15,2.0382678E16,3.8875433E16,2.936239E16,0E0,0E0,0E0,0E0,0E0,0E0,0E0,0E0,0E0,0E0,0E0,0E0,0E0,0E0,0E0,0E0],"parents":[2147483647,0,0,1,1,2,2,3,3,4,4,5,5,6,6,7,7,8,8,9,9,10,10,11,11,12,12,13,13,14,14],"right_children":[2,4,6,8,10,12,14,16,18,20,22,24,26,28,30,-1,-1,-1,-1,-1,-1,-1,-1,-1,-1,-1,-1,-1,-1,-1,-1],"split_conditions":[2.4744667E-1,3.127875E1,2.5843334E-1,7.03E0,3.183E1,1.168E1,1.733E1,1.9971909E-1,2.853E1,1.341E-1,1.301E-1,1.104E1,-4.83E0,8.95E0,2.555E-1,1.335689E0,1.0466956E0,1.121509E0,1.2741039E0,1.415074E0,1.4811808E0,1.504843E0,1.575925E0,6.6903573E-1,1.0041301E0,-4.0536284E-1,7.7434295E-1,7.403612E-1,6.3554144E-1,-5.69657E-1,4.3751118E-1],"split_indices":[39,77,37,30,74,74,74,17,5,37,32,78,28,74,32,0,0,0,0,0,0,0,0,0,0,0,0,0,0,0,0],"split_type":[0,0,0,0,0,0,0,0,0,0,0,0,0,0,0,0,0,0,0,0,0,0,0,0,0,0,0,0,0,0,0],"sum_hessian":[2.1399745E16,1.8490895E16,2.90885E15,1.2907498E16,5.583398E15,3.9035646E14,2.5184937E15,9.076903E15,3.830595E15,3.1934282E15,2.3899697E15,2.3448297E14,1.5587349E14,2.423177E15,9.531657E13,8.5618777E15,5.1502537E14,3.0431526E15,7.874422E14,1.7610716E15,1.4323567E15,1.7573155E15,6.326542E14,7.7990713E12,2.266839E14,1.4786046E12,1.5439488E14,4.301987E14,1.9929785E15,2.9882778E12,9.232829E13],"tree_param":{"num_deleted":"0","num_feature":"85","num_nodes":"31","size_leaf_vector":"1"}},{"base_weights":[1.1977886E2,6.622063E1,1.2813155E2,8.72979E1,6.2862484E1,1.0841504E2,1.3399033E2,8.934196E1,3.7516773E1,5.834353E1,8.322504E1,-8.028364E1,1.0920263E2,1.294152E2,1.431837E2,8.2257634E-1,9.884815E-1,-4.9086386E-1,4.6255866E-1,4.550331E-1,6.34357E-1,-5.978527E-1,8.3819747E-1,-8.540035E-1,-5.9067845E-1,9.8019385E-1,1.1384565E0,1.2194729E0,1.3464358E0,1.3812699E0,1.4489723E0],"categories":[],"categories_nodes":[],"categories_segments":[],"categories_sizes":[],"default_left":[1,0,0,0,0,0,0,0,0,0,1,0,0,0,0,0,0,0,0,0,0,0,0,0,0,0,0,0,0,0,0],"id":28,"left_children":[1,3,5,7,9,11,13,15,17,19,21,23,25,27,29,-1,-1,-1,-1,-1,-1,-1,-1,-1,-1,-1,-1,-1,-1,-1,-1],"loss_changes":[8.1090126E18,1.7309722E17,1.8113618E18,3.419866E16,1.9410613E17,5.3386567E17,5.0846695E17,2.1741193E16,1.0032444E16,1.1287531E17,3.2584027E16,1.620809E15,1.857515E17,3.151728E17,3.4797344E16,0E0,0E0,0E0,0E0,0E0,0E0,0E0,0E0,0E0,0E0,0E0,0E0,0E0,0E0,0E0,0E0],"parents":[2147483647,0,0,1,1,2,2,3,3,4,4,5,5,6,6,7,7,8,8,9,9,10,10,11,11,12,12,13,13,14,14],"right_children":[2,4,6,8,10,12,14,16,18,20,22,24,26,28,30,-1,-1,-1,-1,-1,-1,-1,-1,-1,-1,-1,-1,-1,-1,-1,-1],"split_conditions":[4.0853333E2,2.5843334E-1,1.6779939E0,2.5079174E1,1.05E2,8E0,3.175E1,2.432634E0,2.4306667E-1,2.4849627E1,8.374E1,2.3493333E-1,9.9927884E-1,2.401301E0,3.183E1,8.2257634E-1,9.884815E-1,-4.9086386E-1,4.6255866E-1,4.550331E-1,6.34357E-1,-5.978527E-1,8.3819747E-1,-8.540035E-1,-5.9067845E-1,9.8019385E-1,1.1384565E0,1.2194729E0,1.3464358E0,1.3812699E0,1.4489723E0],"split_indices":[52,37,11,70,0,0,72,11,37,70,20,37,11,11,73,0,0,0,0,0,0,0,0,0,0,0,0,0,0,0,0],"split_type":[0,0,0,0,0,0,0,0,0,0,0,0,0,0,0,0,0,0,0,0,0,0,0,0,0,0,0,0,0,0,0],"sum_hessian":[1.8126544E16,2.4455342E15,1.568101E16,3.3608807E14,2.1094462E15,3.5922003E15,1.208881E16,3.2283226E14,1.3255819E13,1.7263304E15,3.8311578E14,1.4930796E13,3.5772694E15,8.071838E15,4.0169715E15,1.849796E14,1.3785266E14,1.2150315E12,1.2040788E13,4.9021747E14,1.2361129E15,1.5865918E12,3.815292E14,1.2029569E13,2.9012279E12,1.0494804E15,2.527789E15,3.3240118E15,4.7478265E15,1.0166876E15,3.000284E15],"tree_param":{"num_deleted":"0","num_feature":"85","num_nodes":"31","size_leaf_vector":"1"}},{"base_weights":[1.1526615E2,1.2308907E2,6.423336E1,1.0851489E2,1.3049231E2,8.049766E1,5.4453693E1,-8.624503E1,1.095662E2,1.2572923E2,1.368412E2,1.0905927E1,8.148546E1,4.7244602E1,6.4765785E1,-7.639137E-1,-9.5543534E-1,1.0716857E0,1.4651208E0,1.2861617E0,1.1154598E0,1.3553767E0,1.4643556E0,-5.302237E-1,3.2234657E-1,6.795696E-1,8.587239E-1,5.888259E-1,4.370177E-1,4.623146E-1,6.769642E-1],"categories":[],"categories_nodes":[],"categories_segments":[],"categories_sizes":[],"default_left":[0,0,0,0,0,1,0,0,0,0,0,1,0,0,0,0,0,0,0,0,0,0,0,0,0,0,0,0,0,0,0],"id":29,"left_children":[1,3,5,7,9,11,13,15,17,19,21,23,25,27,29,-1,-1,-1,-1,-1,-1,-1,-1,-1,-1,-1,-1,-1,-1,-1,-1],"loss_changes":[6.132724E18,1.4371409E18,3.247699E17,9.1869914E17,2.6711975E17,5.270619E16,9.479192E16,2.207218E15,3.953228E17,2.0664661E17,4.734937E16,1.4631261E16,4.486612E16,3.0942594E16,2.8497142E16,0E0,0E0,0E0,0E0,0E0,0E0,0E0,0E0,0E0,0E0,0E0,0E0,0E0,0E0,0E0,0E0],"parents":[2147483647,0,0,1,1,2,2,3,3,4,4,5,5,6,6,7,7,8,8,9,9,10,10,11,11,12,12,13,13,14,14],"right_children":[2,4,6,8,10,12,14,16,18,20,22,24,26,28,30,-1,-1,-1,-1,-1,-1,-1,-1,-1,-1,-1,-1,-1,-1,-1,-1],"split_conditions":[2.456625E-1,1.9303557E0,2.233E-1,7E0,3.127875E1,1.033875E1,9.1E1,1.5753706E0,1.34E2,1.2291E2,1.27E2,-3.6E1,4.6E1,1.7E1,1.0211E2,-7.639137E-1,-9.5543534E-1,1.0716857E0,1.4651208E0,1.2861617E0,1.1154598E0,1.3553767E0,1.4643556E0,-5.302237E-1,3.2234657E-1,6.795696E-1,8.587239E-1,5.888259E-1,4.370177E-1,4.623146E-1,6.769642E-1],"split_indices":[38,8,44,0,77,77,0,8,0,31,0,54,0,0,31,0,0,0,0,0,0,0,0,0,0,0,0,0,0,0,0],"split_type":[0,0,0,0,0,0,0,0,0,0,0,0,0,0,0,0,0,0,0,0,0,0,0,0,0,0,0,0,0,0,0],"sum_hessian":[1.5361572E16,1.3319759E16,2.0418142E15,4.4868484E15,8.83291E15,7.667139E14,1.2751004E15,2.4089828E13,4.4627585E15,5.046739E15,3.786171E15,1.073059E13,7.559833E14,7.504601E14,5.2464022E14,1.1695766E13,1.2394061E13,4.1907942E15,2.719644E14,4.1932286E15,8.5351026E14,3.3332957E15,4.5287544E14,2.6844689E12,8.0461205E12,1.8511688E14,5.708664E14,1.751389E14,5.753212E14,7.16298E13,4.530104E14],"tree_param":{"num_deleted":"0","num_feature":"85","num_nodes":"31","size_leaf_vector":"1"}},{"base_weights":[1.1092268E2,6.260755E1,1.185497E2,5.9251064E1,8.449261E1,1.12970985E2,1.3141975E2,5.4711853E1,7.686255E1,6.576597E1,8.96512E1,1.0869965E2,1.2609039E2,1.26506325E2,1.3405539E2,4.2291418E-1,5.964293E-1,7.7429914E-1,-5.4397386E-1,3.714637E-1,7.039645E-1,9.0087956E-1,2.5476182E-1,-9.056943E-1,1.0941696E0,-4.186714E-1,1.270504E0,1.2310884E0,1.3295103E0,1.3273454E0,1.3921307E0],"categories":[],"categories_nodes":[],"categories_segments":[],"categories_sizes":[],"default_left":[1,1,0,0,1,0,0,0,0,1,0,0,0,0,0,0,0,0,0,0,0,0,0,0,0,0,0,0,0,0,0],"id":30,"left_children":[1,3,5,7,9,11,13,15,17,19,21,23,25,27,29,-1,-1,-1,-1,-1,-1,-1,-1,-1,-1,-1,-1,-1,-1,-1,-1],"loss_changes":[4.7974243E18,1.3038174E17,8.072878E17,1.23025456E17,2.2800435E16,4.3954077E17,4.4028844E16,7.4938315E16,2.3486118E16,6.7553307E15,5.1868087E15,8.458015E17,3.1063622E17,2.5990256E16,1.5076503E16,0E0,0E0,0E0,0E0,0E0,0E0,0E0,0E0,0E0,0E0,0E0,0E0,0E0,0E0,0E0,0E0],"parents":[2147483647,0,0,1,1,2,2,3,3,4,4,5,5,6,6,7,7,8,8,9,9,10,10,11,11,12,12,13,13,14,14],"right_children":[2,4,6,8,10,12,14,16,18,20,22,24,26,28,30,-1,-1,-1,-1,-1,-1,-1,-1,-1,-1,-1,-1,-1,-1,-1,-1],"split_conditions":[1.0168467E2,9.696333E1,3.135E1,1.05E2,-3.2E-1,2.5227007E1,3.1854E1,2.4849627E1,3.207E1,-1.05E0,2.5079174E1,4.5E1,1.1044666E2,1.22E2,2.2348047E1,4.2291418E-1,5.964293E-1,7.7429914E-1,-5.4397386E-1,3.714637E-1,7.039645E-1,9.0087956E-1,2.5476182E-1,-9.056943E-1,1.0941696E0,-4.186714E-1,1.270504E0,1.2310884E0,1.3295103E0,1.3273454E0,1.3921307E0],"split_indices":[26,26,72,0,82,70,78,70,72,82,70,0,26,0,59,0,0,0,0,0,0,0,0,0,0,0,0,0,0,0,0],"split_type":[0,0,0,0,0,0,0,0,0,0,0,0,0,0,0,0,0,0,0,0,0,0,0,0,0,0,0,0,0,0,0],"sum_hessian":[1.3018779E16,1.7749488E15,1.124383E16,1.5389256E15,2.360233E14,7.843816E15,3.4000148E15,1.2235626E15,3.1536297E14,5.097492E13,1.8504838E14,5.9173005E15,1.9265156E15,1.1870578E15,2.2129571E15,3.4772072E14,8.758419E14,3.140057E14,1.3572874E12,7.0988884E12,4.3876035E13,1.8379749E14,1.250884E12,2.1224065E13,5.8960763E15,1.0949081E13,1.9155664E15,7.7729056E14,4.0976723E14,1.7617811E15,4.51176E14],"tree_param":{"num_deleted":"0","num_feature":"85","num_nodes":"31","size_leaf_vector":"1"}},{"base_weights":[1.06829025E2,6.0461178E1,1.1444767E2,6.2365696E1,-7.054455E1,9.505788E1,1.1915412E2,5.7754353E1,8.82972E1,-8.221119E1,7.52498E1,-2.9395203E1,9.539803E1,1.0528448E2,1.2149809E2,5.25283E-1,6.5424323E-1,5.3775626E-1,9.6218085E-1,-6.0498506E-1,-9.1022736E-1,-5.4126495E-1,7.760391E-1,5.0152344E-1,-8.060671E-1,8.481102E-1,9.926156E-1,9.7701234E-1,1.1360023E0,1.1798227E0,1.272989E0],"categories":[],"categories_nodes":[],"categories_segments":[],"categories_sizes":[],"default_left":[1,0,0,1,1,0,0,0,0,1,0,0,0,0,0,0,0,0,0,0,0,0,0,0,0,0,0,0,0,0,0],"id":31,"left_children":[1,3,5,7,9,11,13,15,17,19,21,23,25,27,29,-1,-1,-1,-1,-1,-1,-1,-1,-1,-1,-1,-1,-1,-1,-1,-1],"loss_changes":[3.8947605E18,3.8819962E17,8.64137E17,1.833859E17,3.7922113E16,7.829622E16,2.4772437E17,5.219107E16,6.331304E16,3.9494715E15,5.031071E14,2.053717E16,7.544409E16,6.9464946E16,1.3293535E17,0E0,0E0,0E0,0E0,0E0,0E0,0E0,0E0,0E0,0E0,0E0,0E0,0E0,0E0,0E0,0E0],"parents":[2147483647,0,0,1,1,2,2,3,3,4,4,5,5,6,6,7,7,8,8,9,9,10,10,11,11,12,12,13,13,14,14],"right_children":[2,4,6,8,10,12,14,16,18,20,22,24,26,28,30,-1,-1,-1,-1,-1,-1,-1,-1,-1,-1,-1,-1,-1,-1,-1,-1],"split_conditions":[1.2E1,1.1E1,1.5520362E0,3.85375E2,2.4969877E1,1.571E1,-1.19E-2,3E0,2.3240907E0,1.4733602E0,2.5069595E1,2.24E1,8.9897746E-1,2.0910463E0,3.175E1,5.25283E-1,6.5424323E-1,5.3775626E-1,9.6218085E-1,-6.0498506E-1,-9.1022736E-1,-5.4126495E-1,7.760391E-1,5.0152344E-1,-8.060671E-1,8.481102E-1,9.926156E-1,9.7701234E-1,1.1360023E0,1.1798227E0,1.272989E0],"split_indices":[84,84,12,51,65,72,43,84,12,12,4,83,12,12,72,0,0,0,0,0,0,0,0,0,0,0,0,0,0,0,0],"split_type":[0,0,0,0,0,0,0,0,0,0,0,0,0,0,0,0,0,0,0,0,0,0,0,0,0,0,0,0,0,0,0],"sum_hessian":[1.1025194E16,1.5558904E15,9.469303E15,1.5335954E15,2.2294934E13,1.8495334E15,7.61977E15,1.302054E15,2.315415E14,2.0643054E13,1.6518818E12,5.041342E12,1.8444921E15,1.10157616E15,6.518194E15,7.74403E14,5.2765093E14,4.3211746E13,1.8832975E14,5.95911E12,1.4683944E13,2.9520234E10,1.6223616E12,1.9744307E12,3.066911E12,4.931468E14,1.3513453E15,5.7616436E14,5.254118E14,4.0584155E15,2.4597785E15],"tree_param":{"num_deleted":"0","num_feature":"85","num_nodes":"31","size_leaf_vector":"1"}},{"base_weights":[1.028731E2,1.09613396E2,5.82637E1,9.108681E1,1.1403063E2,5.374349E1,7.2587654E1,-6.074364E1,9.188334E1,1.0952382E2,1.2154645E2,-6.631914E1,5.4518227E1,-4.867267E1,7.307039E1,3.2403687E-1,-6.916949E-1,8.860261E-1,1.039221E0,1.0849086E0,1.4660275E0,1.1700432E0,1.2399492E0,-4.1499928E-1,-9.7967476E-1,4.679311E-1,6.5992E-1,-5.612187E-1,-3.880821E-1,8.74286E-1,6.971967E-1],"categories":[],"categories_nodes":[],"categories_segments":[],"categories_sizes":[],"default_left":[0,0,0,0,0,1,1,0,0,0,0,1,0,0,0,0,0,0,0,0,0,0,0,0,0,0,0,0,0,0,0],"id":32,"left_children":[1,3,5,7,9,11,13,15,17,19,21,23,25,27,29,-1,-1,-1,-1,-1,-1,-1,-1,-1,-1,-1,-1,-1,-1,-1,-1],"loss_changes":[2.8076865E18,6.638587E17,7.9360825E16,1.888763E17,2.2187265E17,8.666241E16,1.7210518E16,6.396892E15,6.1360445E16,1.5683874E17,2.730747E16,4.6920306E15,8.2051605E16,8.566715E13,1.4089005E16,0E0,0E0,0E0,0E0,0E0,0E0,0E0,0E0,0E0,0E0,0E0,0E0,0E0,0E0,0E0,0E0],"parents":[2147483647,0,0,1,1,2,2,3,3,4,4,5,5,6,6,7,7,8,8,9,9,10,10,11,11,12,12,13,13,14,14],"right_children":[2,4,6,8,10,12,14,16,18,20,22,24,26,28,30,-1,-1,-1,-1,-1,-1,-1,-1,-1,-1,-1,-1,-1,-1,-1,-1],"split_conditions":[2.501E-1,1.5768583E0,1.04E2,7E0,3.151E1,2.48075E-1,5.0258905E-2,4.01E2,2.764E1,1.34E2,3.1854E1,3.47E0,3.38E2,2.4954144E-2,2.95E2,3.2403687E-1,-6.916949E-1,8.860261E-1,1.039221E0,1.0849086E0,1.4660275E0,1.1700432E0,1.2399492E0,-4.1499928E-1,-9.7967476E-1,4.679311E-1,6.5992E-1,-5.612187E-1,-3.880821E-1,8.74286E-1,6.971967E-1],"split_indices":[35,6,0,0,71,38,8,3,71,0,78,82,3,6,3,0,0,0,0,0,0,0,0,0,0,0,0,0,0,0,0],"split_type":[0,0,0,0,0,0,0,0,0,0,0,0,0,0,0,0,0,0,0,0,0,0,0,0,0,0,0,0,0,0,0],"sum_hessian":[9.337742E15,8.112046E15,1.2256963E15,1.5617623E15,6.5502836E15,9.3168464E14,2.940117E14,8.150507E12,1.5536118E15,4.0948414E15,2.4554425E15,5.9734056E12,9.257113E14,1.1658206E12,2.9284587E14,6.761134E11,7.4743934E12,1.2209002E15,3.3271172E14,3.983858E15,1.1098317E14,8.600245E14,1.5954178E15,3.3479115E12,2.625494E12,5.5322994E14,3.724813E14,6.642262E11,5.0159432E11,5.5409558E13,2.3743631E14],"tree_param":{"num_deleted":"0","num_feature":"85","num_nodes":"31","size_leaf_vector":"1"}},{"base_weights":[9.894086E1,5.708182E1,1.053232E2,5.4233135E1,7.500265E1,9.3236305E1,1.1172791E2,-4.2111053E1,5.4589542E1,2.1789589E1,7.6377144E1,-4.6464815E0,9.517211E1,7.44197E1,1.1260574E2,2.2234087E-1,-4.433458E-1,4.7574806E-1,5.8975077E-1,3.3684376E-1,-4.6322313E-1,8.1006116E-1,6.6519356E-1,8.2789844E-1,-9.249871E-1,1.2844491E0,9.287864E-1,9.414805E-1,-9.258211E-1,1.1271422E0,-6.1554486E-1],"categories":[],"categories_nodes":[],"categories_segments":[],"categories_sizes":[],"default_left":[1,1,0,0,0,0,0,0,0,0,0,0,0,0,0,0,0,0,0,0,0,0,0,0,0,0,0,0,0,0,0],"id":33,"left_children":[1,3,5,7,9,11,13,15,17,19,21,23,25,27,29,-1,-1,-1,-1,-1,-1,-1,-1,-1,-1,-1,-1,-1,-1,-1,-1],"loss_changes":[2.1151965E18,5.3473923E16,5.3182058E17,3.1034265E16,1.0508101E16,4.5086574E17,1.4706628E17,4.7659105E14,2.7701646E16,2.9308264E15,6.390705E15,3.5446458E17,1.7805271E17,3.4010286E17,8.289438E16,0E0,0E0,0E0,0E0,0E0,0E0,0E0,0E0,0E0,0E0,0E0,0E0,0E0,0E0,0E0,0E0],"parents":[2147483647,0,0,1,1,2,2,3,3,4,4,5,5,6,6,7,7,8,8,9,9,10,10,11,11,12,12,13,13,14,14],"right_children":[2,4,6,8,10,12,14,16,18,20,22,24,26,28,30,-1,-1,-1,-1,-1,-1,-1,-1,-1,-1,-1,-1,-1,-1,-1,-1],"split_conditions":[4.1366666E2,3.7606668E2,1.9646072E0,1.5148789E-1,8.025965E-1,1.652E1,1.491E1,2.438826E1,-2.5E-1,4E2,-1.3E-3,2.24E1,1.781E1,2.796E1,2.496393E1,2.2234087E-1,-4.433458E-1,4.7574806E-1,5.8975077E-1,3.3684376E-1,-4.6322313E-1,8.1006116E-1,6.6519356E-1,8.2789844E-1,-9.249871E-1,1.2844491E0,9.287864E-1,9.414805E-1,-9.258211E-1,1.1271422E0,-6.1554486E-1],"split_indices":[52,52,13,11,11,73,5,59,82,47,43,83,5,83,64,0,0,0,0,0,0,0,0,0,0,0,0,0,0,0,0],"split_type":[0,0,0,0,0,0,0,0,0,0,0,0,0,0,0,0,0,0,0,0,0,0,0,0,0,0,0,0,0,0,0],"sum_hessian":[7.9173894E15,1.0474709E15,6.869919E15,9.0380285E14,1.4366807E14,2.3794527E15,4.490466E15,3.331106E12,9.004717E14,3.6175156E12,1.40050545E14,4.6145368E13,2.3333073E15,1.0322814E14,4.3872377E15,1.1126552E11,3.2198406E12,3.4639985E14,5.540719E14,3.079691E12,5.3782476E11,9.530003E13,4.4750514E13,2.3127428E13,2.3017942E13,1.5046232E14,2.182845E15,9.232192E13,1.0906227E13,4.3845066E15,2.7310387E12],"tree_param":{"num_deleted":"0","num_feature":"85","num_nodes":"31","size_leaf_vector":"1"}},{"base_weights":[9.539186E1,5.429308E1,1.01979324E2,5.6688915E1,-7.178353E1,9.065166E1,1.0827421E2,6.944937E1,4.5950817E1,-8.062355E1,6.876072E1,2.2804375E1,9.177719E1,1.0539782E2,1.14327255E2,6.6446155E-1,1.0289748E0,5.648705E-1,3.9857775E-1,-5.488305E-1,-8.832676E-1,-4.4503164E-1,7.0567185E-1,-1.0338948E0,8.068897E-1,1.2392529E0,8.959659E-1,1.0386347E0,1.2107365E0,1.1806355E0,1.1131369E0],"categories":[],"categories_nodes":[],"categories_segments":[],"categories_sizes":[],"default_left":[1,0,1,0,1,0,0,1,0,0,0,0,0,0,0,0,0,0,0,0,0,0,0,0,0,0,0,0,0,0,0],"id":34,"left_children":[1,3,5,7,9,11,13,15,17,19,21,23,25,27,29,-1,-1,-1,-1,-1,-1,-1,-1,-1,-1,-1,-1,-1,-1,-1,-1],"loss_changes":[1.8134641E18,2.7949943E17,4.1164836E17,1.2442541E17,2.1438913E16,1.5747425E17,6.4607303E16,4.16829E16,3.1656245E16,3.2190952E15,2.0893298E14,2.4581055E17,1.4220314E17,6.0506125E16,1.3459122E16,0E0,0E0,0E0,0E0,0E0,0E0,0E0,0E0,0E0,0E0,0E0,0E0,0E0,0E0,0E0,0E0],"parents":[2147483647,0,0,1,1,2,2,3,3,4,4,5,5,6,6,7,7,8,8,9,9,10,10,11,11,12,12,13,13,14,14],"right_children":[2,4,6,8,10,12,14,16,18,20,22,24,26,28,30,-1,-1,-1,-1,-1,-1,-1,-1,-1,-1,-1,-1,-1,-1,-1,-1],"split_conditions":[1.2E1,1.1E1,1.8982335E0,2.233E-1,3.7454814E-1,1.668E1,3.223E1,5.18E2,9.43E0,1.5768583E0,2.50592E-2,2.081E-1,1.3E1,1.38E2,5.6E1,6.6446155E-1,1.0289748E0,5.648705E-1,3.9857775E-1,-5.488305E-1,-8.832676E-1,-4.4503164E-1,7.0567185E-1,-1.0338948E0,8.068897E-1,1.2392529E0,8.959659E-1,1.0386347E0,1.2107365E0,1.1806355E0,1.1131369E0],"split_indices":[84,84,14,44,18,71,75,52,76,6,15,44,84,84,84,0,0,0,0,0,0,0,0,0,0,0,0,0,0,0,0],"split_type":[0,0,0,0,0,0,0,0,0,0,0,0,0,0,0,0,0,0,0,0,0,0,0,0,0,0,0,0,0,0,0],"sum_hessian":[6.698299E15,9.2531473E14,5.772984E15,9.080589E14,1.7255857E13,2.062146E15,3.710838E15,4.149541E14,4.9310476E14,1.6234718E13,1.02113876E12,3.36511E13,2.028495E15,2.515487E15,1.1953511E15,3.807662E14,3.4187931E13,1.8067584E14,3.124289E14,3.7394016E12,1.2495317E13,1.6030675E10,1.0051081E12,1.0581795E13,2.3069305E13,1.2885272E14,1.8996422E15,2.2912222E15,2.2426465E14,5.336798E14,6.616713E14],"tree_param":{"num_deleted":"0","num_feature":"85","num_nodes":"31","size_leaf_vector":"1"}},{"base_weights":[9.18141E1,9.7664734E1,5.4278606E1,8.736703E1,1.03852325E2,4.2955296E1,5.9475166E1,-8.191675E1,8.950269E1,6.3452446E1,1.04672226E2,-5.030996E1,4.4645603E1,7.078053E1,5.3492416E1,6.102891E-1,-9.35389E-1,8.7576705E-1,1.248697E0,-8.093604E-1,9.420154E-1,1.0482916E0,-9.60128E-1,-5.2443755E-1,1.5221454E-1,5.3453094E-1,3.7748992E-1,5.623682E-1,7.3612595E-1,4.580306E-1,6.5808743E-1],"categories":[],"categories_nodes":[],"categories_segments":[],"categories_sizes":[],"default_left":[0,1,0,0,0,1,0,0,0,0,0,0,0,1,0,0,0,0,0,0,0,0,0,0,0,0,0,0,0,0,0],"id":35,"left_children":[1,3,5,7,9,11,13,15,17,19,21,23,25,27,29,-1,-1,-1,-1,-1,-1,-1,-1,-1,-1,-1,-1,-1,-1,-1,-1],"loss_changes":[1.2464592E18,3.1288582E17,4.5037783E16,6.663447E17,1.0160367E17,3.7956172E16,3.5484401E16,3.8148776E16,1.2398093E17,2.7088754E17,9.4683344E16,5.993015E14,1.436426E16,7.477916E15,3.2490775E16,0E0,0E0,0E0,0E0,0E0,0E0,0E0,0E0,0E0,0E0,0E0,0E0,0E0,0E0,0E0,0E0],"parents":[2147483647,0,0,1,1,2,2,3,3,4,4,5,5,6,6,7,7,8,8,9,9,10,10,11,11,12,12,13,13,14,14],"right_children":[2,4,6,8,10,12,14,16,18,20,22,24,26,28,30,-1,-1,-1,-1,-1,-1,-1,-1,-1,-1,-1,-1,-1,-1,-1,-1],"split_conditions":[2.4132666E-1,1.7759086E0,4.6E1,7E0,1.491E1,2.5044668E-1,2.660625E-1,1.8831658E-1,1.34E2,1.1348E2,1.9970612E-1,2.599E-1,1.4E1,7.259776E-1,1.05E2,6.102891E-1,-9.35389E-1,8.7576705E-1,1.248697E0,-8.093604E-1,9.420154E-1,1.0482916E0,-9.60128E-1,-5.2443755E-1,1.5221454E-1,5.3453094E-1,3.7748992E-1,5.623682E-1,7.3612595E-1,4.580306E-1,6.5808743E-1],"split_indices":[39,10,0,0,75,39,38,17,0,19,17,36,0,10,0,0,0,0,0,0,0,0,0,0,0,0,0,0,0,0,0],"split_type":[0,0,0,0,0,0,0,0,0,0,0,0,0,0,0,0,0,0,0,0,0,0,0,0,0,0,0,0,0,0,0],"sum_hessian":[5.6758965E15,4.9105E15,7.653965E14,1.8431059E15,3.067394E15,2.4076635E14,5.2463015E14,2.2962705E13,1.8201433E15,6.1013227E13,3.0063807E15,4.285899E12,2.3648045E14,1.8155426E14,3.430759E14,1.726596E12,2.123611E13,1.7261425E15,9.400076E13,1.0712161E13,5.0301067E13,3.0040314E15,2.3491641E12,4.1507448E12,1.35154115E11,1.0385273E14,1.3262772E14,2.959135E13,1.519629E14,2.112118E14,1.318641E14],"tree_param":{"num_deleted":"0","num_feature":"85","num_nodes":"31","size_leaf_vector":"1"}},{"base_weights":[8.852782E1,5.1784657E1,9.4046234E1,5.6860218E1,3.4593086E1,7.864286E1,9.78009E1,5.7562916E1,-8.411532E1,3.4780144E1,-3.45963E1,7.956993E1,-4.1781067E1,5.7281277E1,9.879619E1,5.820819E-1,-3.2771724E-1,-4.1344622E-1,-9.1357803E-1,3.6159578E-1,2.8246224E-1,-2.6777565E-2,-3.5916153E-1,7.6524115E-1,9.0627867E-1,-6.093233E-1,4.3285012E-2,-8.1657255E-1,7.448745E-1,9.496502E-1,1.0456077E0],"categories":[],"categories_nodes":[],"categories_segments":[],"categories_sizes":[],"default_left":[1,0,0,0,0,0,0,0,1,0,0,0,0,0,0,0,0,0,0,0,0,0,0,0,0,0,0,0,0,0,0],"id":36,"left_children":[1,3,5,7,9,11,13,15,17,19,21,23,25,27,29,-1,-1,-1,-1,-1,-1,-1,-1,-1,-1,-1,-1,-1,-1,-1,-1],"loss_changes":[9.7362194E17,5.4710324E16,2.4144396E17,4.79552E16,1.8496706E15,9.134413E16,1.3536747E17,2.8077679E16,7.437412E14,1.2846763E15,1.6233567E13,2.7346503E16,5.519644E15,1.9237377E17,7.235006E16,0E0,0E0,0E0,0E0,0E0,0E0,0E0,0E0,0E0,0E0,0E0,0E0,0E0,0E0,0E0,0E0],"parents":[2147483647,0,0,1,1,2,2,3,3,4,4,5,5,6,6,7,7,8,8,9,9,10,10,11,11,12,12,13,13,14,14],"right_children":[2,4,6,8,10,12,14,16,18,20,22,24,26,28,30,-1,-1,-1,-1,-1,-1,-1,-1,-1,-1,-1,-1,-1,-1,-1,-1],"split_conditions":[4.06E2,2.346E-1,1.250953E0,2.5507664E1,9.654E1,2.500227E1,1.483E1,2.45E-2,9.1E1,3.25E2,9.696E1,2.804E1,2.081E-1,2.033E-1,3.159E1,5.820819E-1,-3.2771724E-1,-4.1344622E-1,-9.1357803E-1,3.6159578E-1,2.8246224E-1,-2.6777565E-2,-3.5916153E-1,7.6524115E-1,9.0627867E-1,-6.093233E-1,4.3285012E-2,-8.1657255E-1,7.448745E-1,9.496502E-1,1.0456077E0],"split_indices":[48,44,10,70,19,70,75,42,55,48,1,75,44,44,75,0,0,0,0,0,0,0,0,0,0,0,0,0,0,0,0],"split_type":[0,0,0,0,0,0,0,0,0,0,0,0,0,0,0,0,0,0,0,0,0,0,0,0,0,0,0,0,0,0,0],"sum_hessian":[4.801761E15,6.270025E14,4.1747584E15,4.8408385E14,1.4291864E14,8.1818644E14,3.356572E15,4.816829E14,2.4009748E12,1.425333E14,3.8534047E11,8.119358E14,6.2506124E12,8.0470885E13,3.276101E15,4.7826655E14,3.4163484E12,3.4768876E11,2.053286E12,1.176872E14,2.4846098E13,1.5301385E10,3.700391E11,6.3659187E14,1.7534397E14,4.416325E12,1.8342874E12,8.867391E12,7.16035E13,1.9680968E15,1.3080042E15],"tree_param":{"num_deleted":"0","num_feature":"85","num_nodes":"31","size_leaf_vector":"1"}},{"base_weights":[8.517442E1,4.851182E1,9.101033E1,5.071683E1,-6.335757E1,8.137645E1,9.689976E1,6.0932396E1,4.1423126E1,-7.092425E1,6.2051914E1,8.3102486E1,-8.902273E1,9.576255E1,1.0968618E2,5.567446E-1,7.739571E-1,5.1102734E-1,3.565605E-1,-4.8961082E-1,-7.822217E-1,6.359517E-1,-3.8089117E-1,9.0409976E-1,7.556028E-1,-1.0210885E0,5.5741644E-1,9.2830455E-1,1.0159217E0,1.022183E0,1.2177278E0],"categories":[],"categories_nodes":[],"categories_segments":[],"categories_sizes":[],"default_left":[1,0,1,0,1,0,0,1,0,0,0,0,0,0,0,0,0,0,0,0,0,0,0,0,0,0,0,0,0,0,0],"id":37,"left_children":[1,3,5,7,9,11,13,15,17,19,21,23,25,27,29,-1,-1,-1,-1,-1,-1,-1,-1,-1,-1,-1,-1,-1,-1,-1,-1],"loss_changes":[8.70866E17,1.378723E17,1.9922491E17,5.2038923E16,1.0252091E16,3.9181097E17,3.1685726E16,2.2602592E16,1.6021809E16,1.6331527E15,9.500763E13,7.2685965E16,2.530679E16,3.4205807E16,1.6064827E16,0E0,0E0,0E0,0E0,0E0,0E0,0E0,0E0,0E0,0E0,0E0,0E0,0E0,0E0,0E0,0E0],"parents":[2147483647,0,0,1,1,2,2,3,3,4,4,5,5,6,6,7,7,8,8,9,9,10,10,11,11,12,12,13,13,14,14],"right_children":[2,4,6,8,10,12,14,16,18,20,22,24,26,28,30,-1,-1,-1,-1,-1,-1,-1,-1,-1,-1,-1,-1,-1,-1,-1,-1],"split_conditions":[1.2E1,1.1E1,1.7759086E0,2.233E-1,2.4969877E1,2.5304544E1,1.38E2,3.1694064E0,9.43E0,1.5768583E0,2.4854807E1,6.03E0,6.53E2,3.223E1,2.6956038E0,5.567446E-1,7.739571E-1,5.1102734E-1,3.565605E-1,-4.8961082E-1,-7.822217E-1,6.359517E-1,-3.8089117E-1,9.0409976E-1,7.556028E-1,-1.0210885E0,5.5741644E-1,9.2830455E-1,1.0159217E0,1.022183E0,1.2177278E0],"split_indices":[84,84,10,44,65,70,84,10,76,6,70,30,47,5,6,0,0,0,0,0,0,0,0,0,0,0,0,0,0,0,0],"split_type":[0,0,0,0,0,0,0,0,0,0,0,0,0,0,0,0,0,0,0,0,0,0,0,0,0,0,0,0,0,0,0],"sum_hessian":[4.0702393E15,5.589262E14,3.511313E15,5.4812242E14,1.0803813E13,1.3321662E15,2.1791467E15,2.611112E14,2.8701122E14,1.018905E13,6.14764E11,1.3188076E15,1.3358699E13,2.0011655E15,1.779812E14,1.9790552E14,6.320568E13,1.0715667E14,1.7985454E14,2.541222E12,7.6478273E12,6.0543376E11,9.330236E9,6.698261E14,6.4898144E14,1.2251235E13,1.1074631E12,1.33148E15,6.696855E14,1.1000989E14,6.7971305E13],"tree_param":{"num_deleted":"0","num_feature":"85","num_nodes":"31","size_leaf_vector":"1"}},{"base_weights":[8.1957756E1,4.630315E1,8.768078E1,4.840228E1,-6.0926067E1,7.347692E1,9.1142784E1,5.7404102E1,4.0022587E1,-6.81698E1,6.116399E1,6.4331955E1,7.67841E1,8.662148E1,9.4928185E1,4.545571E-1,6.607122E-1,4.0577132E-1,-4.0945247E-1,-4.7221324E-1,-7.5123143E-1,2.7441746E-1,6.287433E-1,5.5508935E-1,6.6431135E-1,9.33906E-1,7.541881E-1,1.214156E0,8.533147E-1,9.674978E-1,8.093033E-1],"categories":[],"categories_nodes":[],"categories_segments":[],"categories_sizes":[],"default_left":[1,0,1,0,1,0,0,1,0,1,0,1,0,0,0,0,0,0,0,0,0,0,0,0,0,0,0,0,0,0,0],"id":38,"left_children":[1,3,5,7,9,11,13,15,17,19,21,23,25,27,29,-1,-1,-1,-1,-1,-1,-1,-1,-1,-1,-1,-1,-1,-1,-1,-1],"loss_changes":[7.039711E17,1.0740524E17,1.4618227E17,3.530305E16,8.102559E15,1.7619674E16,4.090623E16,2.3365653E16,1.0882932E16,1.259774E15,2.959568E13,2.8657396E15,9.700441E15,4.8889785E16,3.3171166E16,0E0,0E0,0E0,0E0,0E0,0E0,0E0,0E0,0E0,0E0,0E0,0E0,0E0,0E0,0E0,0E0],"parents":[2147483647,0,0,1,1,2,2,3,3,4,4,5,5,6,6,7,7,8,8,9,9,10,10,11,11,12,12,13,13,14,14],"right_children":[2,4,6,8,10,12,14,16,18,20,22,24,26,28,30,-1,-1,-1,-1,-1,-1,-1,-1,-1,-1,-1,-1,-1,-1,-1,-1],"split_conditions":[1.2E1,1.1E1,1.4255185E0,2.233E-1,5E0,9.500584E-1,2.3364198E0,2.2232819E0,9.654E1,1.5519937E0,1.4473597E0,4.0139747E-1,1.3E1,1.3E1,2.247E-1,4.545571E-1,6.607122E-1,4.0577132E-1,-4.0945247E-1,-4.7221324E-1,-7.5123143E-1,2.7441746E-1,6.287433E-1,5.5508935E-1,6.6431135E-1,9.33906E-1,7.541881E-1,1.214156E0,8.533147E-1,9.674978E-1,8.093033E-1],"split_indices":[84,84,9,44,53,12,9,9,23,7,7,9,84,84,44,0,0,0,0,0,0,0,0,0,0,0,0,0,0,0,0],"split_type":[0,0,0,0,0,0,0,0,0,0,0,0,0,0,0,0,0,0,0,0,0,0,0,0,0,0,0,0,0,0,0],"sum_hessian":[3.4499502E15,4.7716932E14,2.972781E15,4.6800755E14,9.161768E12,5.825802E14,2.3902008E15,2.2562814E14,2.4237942E14,8.6486354E12,5.131328E11,1.5472833E14,4.2785182E14,1.0892251E15,1.3009757E15,9.485798E13,1.3077017E14,2.4073065E14,1.6487526E12,2.1553051E12,6.4933305E12,2.4769012E10,4.883638E11,2.9737907E13,1.2499043E14,3.2503144E13,3.953487E14,3.893973E13,1.0502854E15,1.1511692E15,1.4980646E14],"tree_param":{"num_deleted":"0","num_feature":"85","num_nodes":"31","size_leaf_vector":"1"}},{"base_weights":[7.865103E1,4.949635E1,8.488422E1,5.6431847E1,-8.264507E0,6.9214264E1,8.875895E1,4.8067436E1,8.478514E1,8.099046E1,-8.9457855E1,-1.123993E1,7.001323E1,1.2260044E1,8.906551E1,3.1442803E-1,5.238191E-1,6.8466187E-1,8.660086E-1,2.4817371E-1,8.5915154E-1,-7.6019555E-1,-1.0783043E0,-3.5326543E-1,4.8055866E-1,6.0509855E-1,7.340371E-1,-8.8634044E-1,3.845301E-1,9.0679634E-1,7.7714086E-1],"categories":[],"categories_nodes":[],"categories_segments":[],"categories_sizes":[],"default_left":[1,0,0,1,0,1,0,0,1,0,1,1,0,0,0,0,0,0,0,0,0,0,0,0,0,0,0,0,0,0,0],"id":39,"left_children":[1,3,5,7,9,11,13,15,17,19,21,23,25,27,29,-1,-1,-1,-1,-1,-1,-1,-1,-1,-1,-1,-1,-1,-1,-1,-1],"loss_changes":[5.326936E17,2.0683545E17,1.4662977E17,1.0932169E17,4.011109E17,3.0775743E16,4.540653E16,2.5531485E16,3.1114805E15,7.293679E15,7.155931E15,6.7238266E15,1.527469E16,2.0423373E16,3.5332806E16,0E0,0E0,0E0,0E0,0E0,0E0,0E0,0E0,0E0,0E0,0E0,0E0,0E0,0E0,0E0,0E0],"parents":[2147483647,0,0,1,1,2,2,3,3,4,4,5,5,6,6,7,7,8,8,9,9,10,10,11,11,12,12,13,13,14,14],"right_children":[2,4,6,8,10,12,14,16,18,20,22,24,26,28,30,-1,-1,-1,-1,-1,-1,-1,-1,-1,-1,-1,-1,-1,-1,-1,-1],"split_conditions":[1.582E1,5.92E2,1.5519937E0,5.06E2,3.739801E-1,-5.6E-1,9.971E1,4.53E2,3.62E0,3.4697173E0,1.15316E2,2.474E1,9.238917E-1,2.121E-1,7.03E0,3.1442803E-1,5.238191E-1,6.8466187E-1,8.660086E-1,2.4817371E-1,8.5915154E-1,-7.6019555E-1,-1.0783043E0,-3.5326543E-1,4.8055866E-1,6.0509855E-1,7.340371E-1,-8.8634044E-1,3.845301E-1,9.0679634E-1,7.7714086E-1],"split_indices":[76,57,7,47,18,80,22,57,30,7,26,77,7,2,30,0,0,0,0,0,0,0,0,0,0,0,0,0,0,0,0],"split_type":[0,0,0,0,0,0,0,0,0,0,0,0,0,0,0,0,0,0,0,0,0,0,0,0,0,0,0,0,0,0,0],"sum_hessian":[2.9312886E15,5.1631396E14,2.4149747E15,4.6096475E14,5.5349235E13,4.7876893E14,1.9362058E15,3.559555E14,1.0500923E14,2.6365703E13,2.8983534E13,4.707787E12,4.7406114E14,7.728177E12,1.9284776E15,7.334417E13,2.8261133E14,1.0513966E13,9.449527E13,2.125166E12,2.4240537E13,1.6739629E13,1.2243904E13,3.347852E12,1.359935E12,1.2465578E14,3.4940535E14,1.592797E12,6.13538E12,1.6883955E15,2.4008215E14],"tree_param":{"num_deleted":"0","num_feature":"85","num_nodes":"31","size_leaf_vector":"1"}},{"base_weights":[7.585556E1,4.2686638E1,8.117915E1,4.4694523E1,-5.600831E1,7.279158E1,8.653162E1,8.089175E1,4.2823296E1,-6.2640793E1,5.5464287E1,7.507492E1,-8.7562645E1,8.684484E1,-3.9248608E1,8.592841E-1,7.290433E-1,4.663964E-1,-4.7359836E-1,-4.5379972E-1,-6.972418E-1,1.3137865E-1,5.826409E-1,7.119541E-1,8.7539023E-1,5.172059E-1,-9.8985845E-1,8.794579E-1,7.434456E-1,-9.6283156E-1,4.2976797E-1],"categories":[],"categories_nodes":[],"categories_segments":[],"categories_sizes":[],"default_left":[1,0,1,0,0,0,0,0,0,1,1,0,0,0,0,0,0,0,0,0,0,0,0,0,0,0,0,0,0,0,0],"id":40,"left_children":[1,3,5,7,9,11,13,15,17,19,21,23,25,27,29,-1,-1,-1,-1,-1,-1,-1,-1,-1,-1,-1,-1,-1,-1,-1,-1],"loss_changes":[4.3779694E17,6.7951674E16,9.59159E16,2.276257E16,5.054846E15,3.0472552E17,5.1382377E16,6.645517E14,1.0997728E17,7.889812E14,4.5499676E13,3.9678626E16,1.8590646E16,1.7903348E16,1.5193392E16,0E0,0E0,0E0,0E0,0E0,0E0,0E0,0E0,0E0,0E0,0E0,0E0,0E0,0E0,0E0,0E0],"parents":[2147483647,0,0,1,1,2,2,3,3,4,4,5,5,6,6,7,7,8,8,9,9,10,10,11,11,12,12,13,13,14,14],"right_children":[2,4,6,8,10,12,14,16,18,20,22,24,26,28,30,-1,-1,-1,-1,-1,-1,-1,-1,-1,-1,-1,-1,-1,-1,-1,-1],"split_conditions":[1.2E1,1.1E1,1.8013526E0,2.2014667E-1,2.555E-1,2.5304544E1,1.9970612E-1,2.158E-1,4.1873334E2,1.6024435E0,-1E-5,3.014E1,1.8552649E-1,2.247E-1,2.121E-1,8.592841E-1,7.290433E-1,4.663964E-1,-4.7359836E-1,-4.5379972E-1,-6.972418E-1,1.3137865E-1,5.826409E-1,7.119541E-1,8.7539023E-1,5.172059E-1,-9.8985845E-1,8.794579E-1,7.434456E-1,-9.6283156E-1,4.2976797E-1],"split_indices":[84,84,10,39,2,70,17,2,52,8,8,72,17,44,34,0,0,0,0,0,0,0,0,0,0,0,0,0,0,0,0],"split_type":[0,0,0,0,0,0,0,0,0,0,0,0,0,0,0,0,0,0,0,0,0,0,0,0,0,0,0,0,0,0,0],"sum_hessian":[2.4793493E15,3.4289908E14,2.1364503E15,3.360621E14,6.8369693E12,8.322589E14,1.3041912E15,1.6518895E13,3.1954322E14,6.4530227E12,3.839469E11,8.205745E14,1.1684429E13,1.3009515E15,3.239744E12,1.0130718E13,6.388177E12,3.0656987E14,1.2973341E13,1.8776249E12,4.5753974E12,2.3821492E10,3.6012543E11,6.2579345E14,1.9478108E14,8.856534E11,1.0798776E13,1.195646E15,1.0530555E14,1.9128922E12,1.326852E12],"tree_param":{"num_deleted":"0","num_feature":"85","num_nodes":"31","size_leaf_vector":"1"}},{"base_weights":[7.321386E1,8.045047E1,5.5493633E1,8.255358E1,6.417355E1,4.2416573E1,7.203407E1,7.166642E1,8.3869316E1,6.541674E1,-2.2849321E1,4.603734E1,-1.2101687E1,6.1344364E1,7.90041E1,7.6795775E-1,6.6836834E-1,7.1268696E-1,8.4760886E-1,6.863609E-1,5.314648E-1,2.884814E-1,-6.945899E-1,-1.7094655E-1,4.674114E-1,5.4684365E-1,-5.4341274E-1,-5.20725E-1,6.180848E-1,9.8563826E-1,7.498745E-1],"categories":[],"categories_nodes":[],"categories_segments":[],"categories_sizes":[],"default_left":[0,0,1,0,0,0,0,0,0,0,0,1,0,0,0,0,0,0,0,0,0,0,0,0,0,0,0,0,0,0,0],"id":41,"left_children":[1,3,5,7,9,11,13,15,17,19,21,23,25,27,29,-1,-1,-1,-1,-1,-1,-1,-1,-1,-1,-1,-1,-1,-1,-1,-1],"loss_changes":[2.6874813E17,5.0940374E16,1.3144524E17,1.8876965E16,1.8420805E16,6.6992762E16,1.9991733E16,3.519743E15,1.3208983E16,6.631292E15,5.77865E15,1.4140475E16,5.9624372E16,5.574524E15,1.2760313E16,0E0,0E0,0E0,0E0,0E0,0E0,0E0,0E0,0E0,0E0,0E0,0E0,0E0,0E0,0E0,0E0],"parents":[2147483647,0,0,1,1,2,2,3,3,4,4,5,5,6,6,7,7,8,8,9,9,10,10,11,11,12,12,13,13,14,14],"right_children":[2,4,6,8,10,12,14,16,18,20,22,24,26,28,30,-1,-1,-1,-1,-1,-1,-1,-1,-1,-1,-1,-1,-1,-1,-1,-1],"split_conditions":[2.4847822E-2,4.32E0,1.58E0,1.4987568E0,2.296E-1,5.35E2,1.4791143E0,2.901E1,2.208E1,2.917E1,2.514E1,2.7591774E-1,8.9765906E-1,2.369E1,1.7218553E0,7.6795775E-1,6.6836834E-1,7.1268696E-1,8.4760886E-1,6.863609E-1,5.314648E-1,2.884814E-1,-6.945899E-1,-1.7094655E-1,4.674114E-1,5.4684365E-1,-5.4341274E-1,-5.20725E-1,6.180848E-1,9.8563826E-1,7.498745E-1],"split_indices":[15,29,29,9,34,46,7,83,83,83,83,9,9,83,7,0,0,0,0,0,0,0,0,0,0,0,0,0,0,0,0],"split_type":[0,0,0,0,0,0,0,0,0,0,0,0,0,0,0,0,0,0,0,0,0,0,0,0,0,0,0,0,0,0,0],"sum_hessian":[2.0957596E15,1.4880623E15,6.0769734E14,1.3177926E15,1.7026967E14,3.393798E14,2.6831753E14,1.4208572E14,1.1757069E15,1.678715E14,2.3981764E12,3.18244E14,2.1135784E13,1.0590079E14,1.6241676E14,6.890444E13,7.318129E13,7.769137E13,1.0980156E15,1.3298122E14,3.4890276E13,1.1370305E12,1.261146E12,3.5087248E12,3.1473527E14,8.1885953E12,1.2947189E13,4.3159536E11,1.0546919E14,2.7670513E13,1.34746235E14],"tree_param":{"num_deleted":"0","num_feature":"85","num_nodes":"31","size_leaf_vector":"1"}},{"base_weights":[7.034632E1,7.682403E1,5.090674E1,7.9506325E1,6.384643E1,5.7991066E1,-7.1779823E-1,4.292592E1,8.001523E1,-5.494455E1,6.4575645E1,7.29258E1,4.3862175E1,-3.302702E1,5.5820736E1,5.437239E-1,3.702646E-1,8.2777226E-1,7.640987E-1,-4.1064298E-1,-8.362458E-1,6.7713326E-1,5.327188E-1,6.183178E-1,8.0769813E-1,5.290746E-1,3.5105792E-1,-5.499932E-1,6.8039405E-1,4.4748223E-1,8.239741E-1],"categories":[],"categories_nodes":[],"categories_segments":[],"categories_sizes":[],"default_left":[0,0,0,0,1,0,1,0,0,1,0,0,0,1,0,0,0,0,0,0,0,0,0,0,0,0,0,0,0,0,0],"id":42,"left_children":[1,3,5,7,9,11,13,15,17,19,21,23,25,27,29,-1,-1,-1,-1,-1,-1,-1,-1,-1,-1,-1,-1,-1,-1,-1,-1],"loss_changes":[2.2402165E17,4.644887E16,1.6261832E17,2.0586156E16,1.97987E16,8.250364E16,9.801227E16,1.0245945E15,1.0860426E16,5.5512157E14,8.0568776E15,1.6540641E16,1.5913369E16,7.5821085E16,5.7416454E15,0E0,0E0,0E0,0E0,0E0,0E0,0E0,0E0,0E0,0E0,0E0,0E0,0E0,0E0,0E0,0E0],"parents":[2147483647,0,0,1,1,2,2,3,3,4,4,5,5,6,6,7,7,8,8,9,9,10,10,11,11,12,12,13,13,14,14],"right_children":[2,4,6,8,10,12,14,16,18,20,22,24,26,28,30,-1,-1,-1,-1,-1,-1,-1,-1,-1,-1,-1,-1,-1,-1,-1,-1],"split_conditions":[2.4887125E1,7.03E0,1.2238E2,1.0525533E2,-7.2E-1,2.442125E-1,2E1,2.195E-1,1.2238E2,1.109125E2,2.917E1,1.4235889E0,2.233E-1,3.1978197E0,3.0961719E0,5.437239E-1,3.702646E-1,8.2777226E-1,7.640987E-1,-4.1064298E-1,-8.362458E-1,6.7713326E-1,5.327188E-1,6.183178E-1,8.0769813E-1,5.290746E-1,3.5105792E-1,-5.499932E-1,6.8039405E-1,4.4748223E-1,8.239741E-1],"split_indices":[4,30,31,26,80,38,55,44,31,25,83,8,44,8,8,0,0,0,0,0,0,0,0,0,0,0,0,0,0,0,0],"split_type":[0,0,0,0,0,0,0,0,0,0,0,0,0,0,0,0,0,0,0,0,0,0,0,0,0,0,0,0,0,0,0],"sum_hessian":[1.7790273E15,1.3343812E15,4.446461E14,1.1058224E15,2.2855882E14,3.9099117E14,5.3654904E13,1.517287E13,1.0906495E15,1.3944772E12,2.2716434E14,1.9007514E14,2.0091604E14,3.414346E13,1.9511447E13,5.160388E12,1.0012481E13,6.17552E14,4.7309753E14,9.3969416E11,4.54783E11,1.7780854E14,4.9355797E13,7.872791E13,1.1134723E14,9.882765E13,1.02088395E14,2.8046107E13,6.0973515E12,1.3773188E13,5.738258E12],"tree_param":{"num_deleted":"0","num_feature":"85","num_nodes":"31","size_leaf_vector":"1"}},{"base_weights":[6.762636E1,4.106175E1,7.3491905E1,4.6281986E1,-2.862601E1,5.938189E1,7.679817E1,7.182885E1,3.6519688E1,4.660862E1,-5.9057003E1,4.2835594E1,6.20726E1,7.445486E1,8.206373E1,-7.519956E-1,7.297563E-1,4.3561175E-1,-4.3840072E-1,-4.8232806E-1,5.055133E-1,-9.644079E-1,-5.8588546E-2,-1.8062142E-1,4.8225513E-1,5.9265924E-1,6.8916845E-1,7.7431494E-1,6.598852E-1,8.5102904E-1,8.064407E-1],"categories":[],"categories_nodes":[],"categories_segments":[],"categories_sizes":[],"default_left":[1,0,0,0,0,0,0,0,0,0,0,0,0,0,0,0,0,0,0,0,0,0,0,0,0,0,0,0,0,0,0],"id":43,"left_children":[1,3,5,7,9,11,13,15,17,19,21,23,25,27,29,-1,-1,-1,-1,-1,-1,-1,-1,-1,-1,-1,-1,-1,-1,-1,-1],"loss_changes":[2.3523666E17,9.933411E16,5.7691375E16,6.335338E16,4.3565992E16,1.0451889E16,1.2362359E16,1.1842084E16,1.0400007E17,2.0492245E15,